#include "embedded_model.h"

#include <stdio.h>
#include <string.h>

static void set_error(char *err, size_t err_size, const char *msg)
{
    if (err && err_size > 0) {
        snprintf(err, err_size, "%s", msg);
    }
}

static const float g_conv1_weight[96] = {
    0.577385187f, 0.283771396f, -0.322384924f, 0.528065324f, -0.306393266f, 0.0903605744f, -0.843133152f, 0.140827745f,
    0.196056947f, -1.56561752e-39f, 2.51396448e-39f, -2.45705775e-39f, 0.547837734f, 0.0589787252f, 0.43993783f, -1.19240284e-38f,
    4.76600105e-39f, 1.05442945e-38f, -0.248868063f, -0.00849781837f, -0.879596829f, 1.67662559e-39f, -1.90348179e-39f, 2.59821755e-39f,
    -0.317639261f, -0.236752599f, -0.333547086f, -0.139044315f, -0.044432234f, -0.891376913f, 2.5670905e-39f, -1.69400309e-39f,
    5.62129478e-39f, 0.123645894f, -0.519701838f, 0.389302671f, 0.124156564f, 0.425445229f, 0.132496819f, -0.0435844809f,
    -0.0338529982f, -0.791409492f, 3.04564794e-39f, 1.91565207e-39f, 2.23643872e-39f, -0.75465107f, 0.194255322f, 0.0344263278f,
    0.259463668f, -0.131401002f, -1.02866042f, -1.13139331f, -0.264385283f, 0.150276095f, 0.395798206f, 0.300380975f,
    0.325728178f, -0.0596754774f, 0.237351328f, -1.01394773f, -0.00292466837f, -1.24155509f, 0.0544665903f, -0.317418098f,
    0.214026019f, -0.50520432f, 0.508025706f, -0.425445169f, -0.400569439f, -0.74211657f, 0.358286291f, -0.0309652891f,
    0.331215322f, -0.308206171f, -0.754375994f, -0.681609154f, -0.382308543f, 0.214791238f, 0.349764884f, 0.232439294f,
    -0.53150022f, -0.929772079f, 0.128882334f, -0.231871381f, 0.348606348f, -0.371017635f, 0.421264976f, -0.822547317f,
    -0.236583948f, -0.188510776f, 0.226553887f, -0.684267223f, 0.214006469f, 0.275533557f, -0.630200922f, -0.215581834f,
};

static const float g_conv1_bias[32] = {
    0.00859372132f, -0.0142059075f, -0.00504390802f, 4.17964172e-39f, -0.0116846589f, -1.19646142e-38f, 0.00596005004f, -9.15011463e-40f,
    0.00487826765f, 0.00564687839f, 5.36279725e-40f, -0.00151059439f, 0.00321145146f, -0.000431139575f, -4.60808452e-39f, 0.00943644997f,
    -0.0155494129f, 0.00370358443f, -0.00371562503f, 0.0216459427f, -0.0134731438f, 0.00418211799f, 0.0287627578f, -1.72367363e-05f,
    0.0122994073f, -0.00551663339f, 0.0018462569f, -0.00840999279f, -0.000249380799f, 0.000613897981f, 0.0121589694f, -0.00214622449f,
};

static const float g_bn1_gamma[32] = {
    0.443163812f, 0.188759148f, 0.943278015f, 1.75061975e-39f, 0.479161382f, -3.57410142e-39f, 1.27582502f, -1.99682229e-39f,
    0.612728775f, 0.779666185f, 5.64524577e-39f, 0.309331238f, 0.123621494f, 1.05181587f, -4.10747905e-39f, 0.719484389f,
    1.89285791f, 1.42979109f, 0.423938423f, 1.25649595f, 1.85730624f, 0.533600748f, 0.832136571f, 0.600015283f,
    0.348121643f, 0.577022552f, 0.513582468f, 1.14347768f, 0.391859442f, 1.28496742f, 0.917494893f, 0.382110536f,
};

static const float g_bn1_beta[32] = {
    -0.129914716f, -0.0492036715f, -0.459165275f, -2.02429474e-39f, -0.308912992f, -3.63259442e-39f, -0.315924019f, -1.46570915e-39f,
    0.12210238f, -0.0250358079f, -8.57884729e-40f, -0.0498898476f, -0.0176967978f, -0.347877592f, -4.15984978e-39f, -0.0506706126f,
    -0.281918734f, 0.0834861621f, -0.296000242f, -0.390917867f, -0.559278727f, -0.130663648f, -0.0311805699f, 0.319498599f,
    0.0228108913f, 0.270689309f, -0.272182763f, 0.111713752f, -0.00110148615f, -0.0281572547f, -0.535263836f, 0.0471706763f,
};

static const float g_bn1_running_mean[32] = {
    0.0807431638f, 0.0223205388f, -0.0668382719f, 3.99375107e-39f, 0.134483069f, -1.12717169e-38f, -0.157491565f, -6.0090761e-40f,
    -0.122120254f, -0.150374651f, 1.44389373e-39f, -0.00711492449f, 0.1038277f, -0.127931505f, -3.58526556e-39f, -0.0559973791f,
    -0.152201489f, -0.164452434f, 0.142167032f, -0.0989565551f, -0.194695935f, -0.0795892403f, -0.0276808199f, -0.0480570272f,
    -0.101496361f, -0.122382388f, 0.00562861143f, -0.145903423f, 0.051312495f, -0.171628967f, -0.0302490573f, -0.0930516943f,
};

static const float g_bn1_running_var[32] = {
    0.0602234714f, 0.0328058191f, 0.0765714794f, 5.60519386e-45f, 0.0497445762f, 5.60519386e-45f, 0.0921846628f, 5.60519386e-45f,
    0.0317124426f, 0.0932137892f, 5.60519386e-45f, 0.0427578166f, 0.0273165591f, 0.0730338916f, 5.60519386e-45f, 0.0566001944f,
    0.138135061f, 0.147726327f, 0.0419682227f, 0.118684359f, 0.178138152f, 0.0373036861f, 0.06611754f, 0.0603413619f,
    0.0947035477f, 0.076530695f, 0.0537605211f, 0.0849402323f, 0.0381911062f, 0.0814610794f, 0.0556465089f, 0.0581015646f,
};

static const float g_conv2_weight[6144] = {
    -0.0617607869f, -0.0241388287f, -0.0417621359f, -0.0765468478f, 0.0312397517f, 0.0194757264f, -0.00429275353f, -0.0641926676f,
    -0.0178157128f, -1.92650513e-40f, 5.90675329e-41f, 4.8517437e-40f, 0.13525933f, 0.0948759317f, 0.12669076f, -3.00898577e-39f,
    -1.52143458e-39f, 2.10029977e-39f, 0.223680496f, 0.0587175488f, 0.00061319978f, -9.06914761e-40f, -9.89770737e-40f, -6.14587226e-39f,
    0.267280877f, 0.0409997515f, 0.203242838f, 0.0220333263f, 0.0286404546f, 0.0803215727f, -3.11289766e-39f, -3.44459201e-39f,
    2.83995555e-39f, -0.025971191f, 0.0278539509f, -0.0126104783f, 0.0339460224f, 0.0127432877f, 0.0136438776f, 0.14016588f,
    0.19094789f, 0.344244599f, 1.52239307e-39f, -6.57814341e-40f, 5.19426028e-39f, 0.0868473873f, 0.0276133399f, 0.0842476562f,
    0.0735089257f, 0.28983289f, 0.230858415f, -0.0238155518f, -0.00609520124f, -0.0704169348f, 0.0319413766f, 0.0838130862f,
    0.145239756f, -0.0138166025f, 0.0672473833f, 0.128937557f, 0.187738776f, 0.363286436f, 0.356712401f, 0.0441084281f,
    -0.00711913547f, 0.0831161141f, -0.177907258f, -0.126936048f, -0.0376826227f, -0.112038612f, 0.0264560115f, -0.0336628929f,
    -0.0448580123f, -0.0394034088f, -0.0184437148f, 0.120391138f, -0.0377951041f, -0.0979821384f, 0.0744225532f, -0.0334393047f,
    -0.0584765486f, -0.0961849168f, 0.0772119388f, 0.0434516557f, -0.0633020476f, -0.0476484969f, -0.112302989f, 0.22120662f,
    0.192685753f, 0.199587435f, 0.0172800664f, 0.0509782843f, -0.0360422395f, -0.0510618351f, -0.0344549902f, -0.0520614348f,
    -0.416750014f, 0.133306935f, 0.219259009f, -0.0516026169f, -0.0324762985f, 0.215702191f, -0.569672465f, -0.144817442f,
    0.252644747f, 3.92304603e-38f, -7.37156196e-38f, 6.39235533e-38f, 0.384804726f, 0.180486947f, -0.0661513135f, 5.31052882e-39f,
    6.0537523e-39f, 6.36727041e-39f, 0.288552374f, 0.175391242f, 0.281661421f, 5.26503426e-39f, 8.85931718e-40f, 3.4288274e-39f,
    0.205659851f, 0.214175448f, -0.247682154f, 0.158578977f, 0.25800702f, 0.129554302f, 1.1318638e-39f, -5.69583685e-39f,
    -6.0668166e-39f, 0.0447022021f, -0.0994971395f, 0.12761274f, -0.0197948609f, 0.206727177f, 0.263448864f, 0.0611002073f,
    -0.0142092817f, 0.219183564f, -2.04883568e-39f, 4.95967731e-39f, 4.69443674e-39f, -0.299862206f, -0.141047627f, 0.037485037f,
    0.431577981f, 0.323523402f, -0.0129889436f, -0.422498286f, 0.152849317f, 0.174000889f, 0.0148323644f, 0.182146594f,
    0.208691835f, -0.234025761f, -0.048680611f, 0.0225105677f, -0.392491966f, 0.159909457f, 0.0968741477f, 0.370032877f,
    0.112483479f, -0.0211413447f, -0.481257856f, -0.230596393f, 0.0521136299f, -0.125136346f, 0.0416804217f, -0.345157176f,
    0.110941164f, 0.00073128537f, 0.149464577f, 0.143305987f, -0.0594552867f, -0.497868985f, 0.0567954518f, 0.00905414205f,
    -0.103602856f, 0.142632142f, -0.167912677f, -0.101418994f, 0.411543041f, 0.243409216f, 0.171480089f, -0.404059201f,
    0.148409188f, 0.130942881f, 0.0236830991f, 0.0902084038f, -0.139879838f, -0.422423661f, -0.324139416f, -0.0126138125f,
    -0.0206653066f, 0.29218784f, 0.0886727273f, 0.197055981f, 0.0881285965f, 0.10654553f, -0.328291178f, -0.169599995f,
    0.111496791f, -3.57032632e-39f, 6.27374495e-39f, -3.71377724e-39f, 0.163974985f, 0.186675593f, 0.00931189768f, 4.10610158e-39f,
    1.13938009e-38f, 1.16763531e-38f, 0.0398942977f, 0.18422915f, 0.434516698f, 6.80927918e-39f, -3.11934083e-39f, 2.01944205e-39f,
    -0.00793999434f, -0.0398071334f, -0.283603311f, -0.0318036973f, 0.247811347f, 0.0870515183f, -4.15354674e-40f, 5.07508965e-39f,
    1.22068931e-39f, 0.136463776f, -0.0521139242f, 0.181054443f, 0.069985494f, 0.0352446325f, 0.117588118f, -0.104267836f,
    -0.114484422f, 0.379617989f, 3.85625286e-39f, 4.64152931e-39f, 3.29872945e-39f, -0.0691095218f, -0.0629696175f, -0.00366964471f,
    0.269427687f, -0.530053139f, 0.12872909f, -0.277870923f, 0.248966634f, 0.142313659f, -0.00471079163f, -0.0109498547f,
    0.225227177f, -0.178340018f, 0.11875888f, 0.233909741f, -0.341188908f, -0.299706936f, 0.0318013988f, 0.20661296f,
    0.11488197f, -0.0191122424f, -0.526954532f, 0.161021054f, 0.032556504f, -0.261720419f, -0.0235973224f, -0.265622705f,
    0.146119177f, -0.0127180777f, -0.017580837f, -0.245239332f, -0.111510091f, -0.194011405f, 0.0621240772f, 0.0167340953f,
    -0.160751611f, 0.362612098f, -0.203803107f, -0.144330904f, 0.409627676f, 0.18405126f, -0.0141121345f, 0.154909894f,
    0.239799336f, 0.187890142f, 0.00220349524f, 0.0500687174f, -0.0683718994f, -0.436515182f, 0.00902918447f, -0.0758407488f,
    0.257521003f, 0.31322369f, 0.214340314f, 0.113159537f, 0.243080482f, 0.217167795f, -0.0293930415f, 0.325928956f,
    0.182576969f, 3.42035375e-39f, 1.56633079e-39f, 3.35497337e-39f, 0.044895608f, 0.193810642f, 0.230810061f, 5.14801743e-39f,
    -5.50404253e-39f, -7.88706828e-41f, 0.403515965f, 0.190342724f, 0.208434507f, -5.62053527e-39f, -3.65389976e-39f, -6.86492474e-39f,
    -0.313884169f, 0.0882969201f, 0.275996268f, 0.0319727324f, 0.336427808f, 0.105006158f, -3.51907523e-39f, -5.78446758e-39f,
    -1.40995428e-39f, -0.363773704f, -0.339095205f, -0.28959322f, 0.0189779438f, 0.0826450735f, -0.106898308f, -0.107812576f,
    -0.264988333f, -0.28812176f, 2.9719999e-39f, 2.06076494e-39f, -6.09100442e-39f, -0.575012863f, -0.156881765f, -0.0727159232f,
    -0.258727044f, -0.392067969f, -0.438840508f, -0.0606118292f, 0.377539665f, 0.294295192f, -0.0545026064f, 0.102851033f,
    0.000367308094f, -0.812303245f, -0.550679147f, -0.676383734f, -0.810736597f, -0.383579791f, -0.140567273f, 0.400110632f,
    0.199581668f, 0.409547895f, -0.0545660146f, 0.0723229796f, 0.127888054f, -0.114251025f, -0.086380668f, -0.207620442f,
    0.00550127961f, 0.256996244f, 0.328734219f, 0.394763142f, -0.0766432881f, -0.011097488f, 0.218150407f, 0.161032557f,
    0.391259015f, 0.286649734f, 0.135890648f, 0.432150573f, -0.0343513079f, -0.145263731f, -0.0363265201f, -0.306014568f,
    -0.292634666f, -0.400653005f, 0.129786789f, 0.211656019f, 0.225459352f, 0.0576971062f, 0.0662034303f, 0.129100487f,
    0.0830472037f, 0.157954216f, 0.22668007f, -0.0516369492f, 0.0727307051f, 0.0656161308f, -0.0918126032f, -0.001477835f,
    -0.171817362f, -3.02625818e-39f, -4.42856277e-39f, -2.7420188e-39f, -0.260822415f, -0.367939293f, -0.280731142f, 1.07202247e-38f,
    1.08785602e-38f, 1.64772521e-39f, 0.0728854164f, 0.159847423f, 0.1236182f, -2.53760578e-39f, -1.72494236e-40f, -3.232846e-39f,
    -0.234557599f, -0.40612033f, -0.439665884f, 0.010251008f, -0.0429986157f, -0.163679242f, 6.35791954e-39f, 3.26345597e-39f,
    6.58400784e-39f, -0.0168023538f, 0.0374911837f, -0.0201201383f, 0.11431592f, 0.120177791f, 0.0462088399f, 0.156435564f,
    0.165562347f, 0.0271356218f, 7.39095817e-39f, 6.79620787e-39f, -4.18235463e-39f, 0.00419849204f, 0.0783565119f, -0.0440497808f,
    0.32782805f, -0.00227721781f, -0.057212688f, -0.126130193f, 0.105182789f, 0.0163108129f, -0.153454602f, -0.11226581f,
    -0.138449371f, 0.148546383f, -0.0395157412f, -0.265137285f, 0.417064577f, 0.174702346f, -0.0680499002f, -0.0885393545f,
    -0.00587749947f, 0.0253761206f, -0.229923427f, -0.0895507112f, -0.00107451878f, 0.180857375f, -0.0891782343f, -0.020067282f,
    0.00794592407f, -0.0598332919f, -0.0402899347f, 0.0548625663f, -0.234419569f, -0.126039222f, 0.0334851667f, -0.0440487787f,
    -0.0604344606f, -0.229321092f, -0.140575945f, -0.136046335f, -0.0593776852f, 0.0759291872f, 0.148487225f, 0.0796889588f,
    0.116414376f, 0.126352191f, 0.0488049202f, -0.0895014107f, -0.238054246f, -0.0960004106f, -0.00244010659f, -0.114102364f,
    0.0959617272f, 0.075940758f, 0.0791257396f, -0.143113345f, 0.000257276115f, -0.0120697869f, -0.0922053605f, -0.0945299789f,
    -0.0164025463f, -1.68039228e-39f, -1.69489852e-39f, -4.89730832e-39f, -0.238329887f, -0.0618929565f, -0.094479166f, 8.72405824e-39f,
    7.05756685e-39f, 1.09530533e-38f, 0.00390727539f, -0.0910439342f, -0.212686211f, 4.97879102e-39f, -3.08033428e-39f, 4.54163635e-39f,
    -0.0645087063f, -0.0151486611f, 0.133490235f, 0.147110254f, 0.0831659809f, -0.0452457927f, -3.01982173e-38f, -3.66436634e-38f,
    4.57553544e-38f, 0.0149056213f, 0.0374668427f, 0.0265737474f, -0.0292895008f, 0.0813589618f, 0.0766956657f, 0.0185436457f,
    0.0989854485f, -0.0777064636f, -6.32854412e-39f, 5.84380696e-40f, 5.46917262e-39f, -0.00650426652f, -0.0939341262f, -0.0465091206f,
    0.306084335f, 0.0438125692f, 0.0431695171f, -0.154995829f, 0.179561928f, 0.0814087242f, -0.191069603f, 0.112159595f,
    0.0252395328f, 0.193567827f, 0.254169315f, 0.227018073f, 0.257292241f, -0.0955667719f, -0.00700835744f, 0.0546264462f,
    0.0702254549f, 0.0581970811f, -0.310570449f, -0.171210393f, -0.0354120471f, -0.139364809f, -0.308530837f, -0.1196502f,
    -0.0280200746f, 0.0126314126f, -0.0785088614f, 0.225457653f, -0.155765116f, -0.171190768f, 0.089770548f, -0.0170468688f,
    0.0490219258f, -0.264165252f, -0.370245785f, -0.346137732f, 0.0350506343f, 0.191162571f, 0.0770233944f, 0.0650302246f,
    0.0914794579f, 0.215086147f, 0.180361122f, -0.028006481f, 0.0226295963f, -0.0934945494f, -0.0197815876f, 0.052636236f,
    -0.111739628f, -0.0509349033f, 0.0723069236f, -0.325332463f, 0.422519088f, -0.0694845915f, -0.0621280484f, 0.304360151f,
    0.0654054284f, 2.37357539e-39f, 3.66122294e-39f, -6.37402887e-39f, -0.43213889f, 0.116729528f, 0.341317177f, 5.08293552e-39f,
    -6.03841985e-38f, 2.82767457e-39f, 0.416256249f, -0.0999958292f, 0.636368334f, 1.64086865e-39f, 4.81031011e-39f, 6.53045722e-40f,
    0.342521876f, -0.0343602411f, -0.257070154f, -0.0554617159f, 0.044483982f, 0.256461114f, 1.41142565e-39f, -1.08126291e-39f,
    -9.64482904e-40f, 0.0891749859f, 0.165395916f, 0.223701671f, -0.0872063935f, -0.118468858f, 0.134466976f, -0.376741976f,
    0.0606008917f, 0.444964916f, -3.21707299e-39f, -2.04415815e-39f, 3.92694977e-39f, 0.295947462f, -0.24750492f, -0.0670574158f,
    0.287218213f, -0.275757283f, 0.311968446f, -0.267533123f, -0.046446912f, -0.126362935f, -0.258791357f, -0.181285858f,
    0.0119328303f, -0.337759644f, 0.0323072858f, 0.0643585175f, -0.123329155f, -1.09766138f, 0.145534292f, 0.280211419f,
    0.0200071372f, 0.0256573055f, -0.0136519335f, 0.338048935f, 0.0759694055f, -0.227081776f, -0.151114255f, -0.000310718664f,
    -0.0499694347f, 0.209026188f, -0.123805776f, -0.0408348553f, -0.213067979f, 0.096667029f, 0.160119891f, -0.00139131036f,
    -0.0358659253f, -0.484664917f, -0.094599627f, -0.0841710046f, -0.23282069f, 0.241915077f, -0.10887792f, 0.617312074f,
    0.127004266f, -0.109438695f, 0.678115606f, -0.0095826108f, 0.157089084f, 0.0344539545f, 0.103951469f, -0.113464028f,
    -0.0282344203f, -0.157405779f, -0.237844676f, -0.132407933f, 0.0454977974f, -0.0399784446f, 0.337973356f, 0.192835063f,
    -0.245934784f, 2.71050359e-40f, -5.46139821e-39f, 5.51521929e-39f, -0.135504246f, 0.277939409f, 0.00167841394f, 4.70979777e-39f,
    -3.87987595e-39f, -2.08130377e-39f, 0.0994417742f, -0.0963947624f, -0.0225992091f, 3.04546998e-39f, -1.63581978e-39f, 1.63850018e-38f,
    0.313047022f, 0.305630594f, -0.135131314f, 0.010131171f, -0.0210747439f, 0.198605433f, -2.28274042e-39f, -4.00386172e-38f,
    1.7378315e-39f, -0.0685550943f, 0.0389926136f, 0.269652188f, -0.11369466f, -0.117270753f, 0.042875424f, 0.0366021954f,
    0.217745438f, 0.0838083029f, -1.59490186e-39f, -5.83831948e-39f, -7.4608101e-39f, 0.00680337287f, 0.102695681f, 0.0747120306f,
    -0.134988591f, -0.159534723f, 0.304617196f, -0.378336787f, 0.172195554f, 0.101619586f, -0.200461045f, 0.156303152f,
    -0.0252583269f, 0.170290306f, 0.063109979f, -0.0838680416f, 0.021602951f, -0.253188908f, 0.232873484f, 0.0698478967f,
    0.0156439561f, 0.0260693021f, 0.0228340719f, 0.165770605f, 0.0898446143f, -0.141532913f, 0.0610728413f, 0.0293163061f,
    0.0186888687f, 0.0503221676f, -0.0600565188f, 0.0702546462f, 0.00302451523f, -0.024830265f, 0.163674846f, -0.191982165f,
    -0.159865499f, -0.231959268f, -0.0583504774f, 0.073669076f, -0.172301576f, 0.0400090925f, 0.184482872f, -0.0210258048f,
    -0.0661919937f, -0.306335598f, 0.285254598f, 0.157650173f, -0.198015347f, 0.116211049f, 0.0826213211f, -0.0823649094f,
    -0.0511860289f, 0.146765381f, 0.19503212f, 0.022979781f, 0.0132406196f, 0.0618761368f, -0.113462545f, 0.0108862221f,
    -0.0943265483f, -5.59726251e-39f, -8.28890462e-40f, -6.51559785e-39f, 0.0904055461f, -0.105418734f, -0.125321448f, 3.40008817e-39f,
    7.51111111e-39f, -1.22260376e-38f, 0.128494918f, 0.211656645f, 0.0764648393f, -4.09369728e-39f, -2.65854345e-40f, 5.13243723e-38f,
    0.0261607915f, 0.0851028338f, -0.152188063f, 0.0266007818f, 0.00987165701f, -0.119345285f, 6.98584895e-38f, 6.11783648e-39f,
    8.13194182e-38f, -0.0306986142f, -0.0769751072f, -0.0430396572f, 0.0574147478f, 0.0584990419f, -0.0196624268f, 0.112232305f,
    0.173081636f, -0.0819637626f, 5.41006024e-39f, 6.09625368e-39f, -3.16697937e-39f, 0.0365032293f, -0.0876013637f, -0.135320798f,
    0.0586878695f, -0.34587118f, -0.223818868f, -0.210503712f, -0.00583356572f, -0.0059979395f, 0.175586894f, -0.0384754427f,
    -0.223464549f, -0.0328046493f, -0.112694867f, -0.266019851f, -0.109698392f, -0.214754671f, -0.213828668f, -0.0101194512f,
    0.0798918754f, 0.0931051746f, -0.106993929f, -0.00829985272f, -0.0781272054f, -0.0156779941f, 0.0876844674f, 0.00416113622f,
    -0.00455465959f, -0.0325830318f, -0.0363337398f, -0.0753382221f, -0.009290318f, -0.00813459791f, -0.040376965f, 0.119166538f,
    0.10465429f, 0.123202816f, 0.0494437255f, 0.0387894139f, 0.165750057f, 0.205291003f, 0.284508318f, -0.26918301f,
    -0.185514405f, 0.0423248559f, -0.146823242f, 0.164254069f, -0.0223621335f, -0.175466225f, 0.0469077155f, 0.0267094858f,
    0.187158763f, 0.10146983f, 0.0224188715f, 0.062473949f, 0.0356351882f, 0.0399972945f, -0.285232365f, -0.249408275f,
    -0.133040503f, -5.26504547e-39f, -5.16398102e-39f, -2.58890452e-39f, 0.365706325f, -0.257212073f, -0.151744872f, 1.16830177e-39f,
    -2.23636025e-39f, -6.90856398e-39f, 0.0614147373f, -0.312188327f, -0.303074837f, -5.64227221e-40f, -3.90375408e-39f, -3.88608511e-39f,
    -0.00820413139f, -0.301246673f, -0.242522433f, 0.0498347692f, -0.290658474f, -0.314167142f, -6.9659948e-39f, -1.56023794e-39f,
    -2.14078188e-39f, 0.041915562f, -0.177590832f, -0.228355289f, 0.00218988629f, -0.0371482633f, -0.160374224f, -0.0615279078f,
    -0.170095935f, -0.119941987f, 3.100314e-39f, 5.33195467e-39f, -3.58769401e-39f, -0.252929032f, -0.252639681f, -0.0909305215f,
    -0.167100593f, -0.306412429f, -0.148819178f, 0.0570812859f, 0.0391245112f, 0.124441899f, 0.1332995f, -0.111009598f,
    -0.0616966002f, -0.0157697219f, -0.0545069985f, -0.210100234f, -0.63586849f, -0.0923276469f, -0.38963896f, 0.107953973f,
    0.136527002f, -0.0821420252f, -0.116638206f, -0.160860732f, -0.0751316994f, 0.342235595f, -0.0398166738f, -0.0651089624f,
    -0.118372858f, -0.149949551f, 0.016180573f, 0.0756606162f, -0.103948571f, 0.109046638f, 0.149253428f, 0.120859638f,
    -0.0327265896f, 0.11086347f, 0.0616949759f, 0.165511191f, 0.16089049f, -0.155086979f, -0.162407085f, 0.221999273f,
    -0.0579489842f, 0.0472938605f, 0.337553769f, -0.0436497778f, -0.0940595791f, -0.0600866787f, 0.0751236454f, -0.00747892354f,
    -0.026018953f, -0.0158068798f, 0.0121771451f, -0.0252355151f, -0.00221211044f, -0.0112826116f, 0.0972604752f, 0.0551438816f,
    0.000851130986f, 7.36656998e-40f, 1.45750174e-39f, 5.83718162e-39f, -0.0163250081f, -0.10425368f, 0.0644428805f, -8.49231711e-40f,
    -1.2176611e-39f, -2.72040237e-39f, 0.0469119996f, -0.0916853175f, -0.0672761798f, -1.32834687e-39f, 6.90727479e-39f, 2.04875441e-39f,
    0.0303961448f, -0.0278838743f, 0.0877994001f, 0.0361089483f, -0.0426047221f, 0.027431149f, -2.28366248e-39f, -2.7863811e-39f,
    1.49376174e-39f, 0.0146103641f, -0.0039076386f, -0.00175044138f, -0.0104110772f, -0.036364466f, -0.0613153651f, 0.0377857089f,
    0.00150845852f, 0.030513132f, 2.59787283e-39f, 3.39111986e-39f, -2.88438792e-39f, 0.094218038f, 0.0661927909f, -0.0294859372f,
    0.056776803f, -0.0479112193f, 0.041935727f, 0.0721862391f, -0.00375309098f, -0.0744609013f, -0.0580920354f, -0.0848020613f,
    -0.0400458016f, 0.14958927f, -0.0917892307f, -0.0833629966f, 0.16479826f, -0.00264145155f, -0.117001988f, 0.114402659f,
    0.0601110011f, 0.0573917776f, 0.0812784359f, 0.223061442f, 0.172814623f, -0.0232133735f, 0.074652493f, 0.0302972514f,
    0.024798708f, 0.0558651015f, 0.0575457662f, 0.0422287546f, 0.0319093019f, 0.0464502946f, -0.00440865755f, -0.0906518027f,
    -0.0394684225f, 0.148220718f, 0.0518695675f, 0.193798497f, -0.0216335505f, 0.00646572141f, 0.0283943582f, -0.028975701f,
    -0.0862051696f, -0.101533949f, -0.0590255037f, -0.0317961201f, 0.0059566726f, -2.30634578e-05f, 0.031593997f, 0.0451781973f,
    0.152538031f, 0.0175805874f, -0.226741076f, -0.158668384f, 0.0452359207f, 0.108626038f, -0.0427140258f, 0.201975375f,
    -0.311076194f, -3.96272072e-39f, -6.09097919e-39f, 2.67354295e-39f, -0.142753288f, 0.111030288f, 0.135702416f, -3.70521251e-39f,
    -9.82590483e-40f, 4.98925031e-39f, 0.00560176745f, -0.115213275f, -0.00511686364f, -5.02554955e-39f, -6.34507945e-41f, 3.72134425e-40f,
    0.340609044f, 0.169988066f, -0.251190811f, -0.176357821f, 0.0667617694f, 0.139495969f, 2.29901286e-38f, 3.38379051e-38f,
    2.33453634e-38f, -0.00313595147f, 0.125384137f, 0.248939514f, -0.0890727937f, -0.0787653029f, 0.162335128f, -0.150315553f,
    -0.00107684254f, 0.130117312f, 5.98699724e-39f, 4.50137424e-39f, 2.35888418e-39f, -0.272737771f, -0.122288227f, 0.0503524616f,
    0.0111521687f, 0.18442513f, 0.153201446f, -0.496854663f, -0.0620341785f, 0.27900362f, -0.461326659f, 0.123328678f,
    0.207802221f, 0.101447515f, 0.0163180716f, 0.0415294543f, 0.101821356f, -0.264878809f, -0.235846162f, 0.219797567f,
    -0.0388030186f, 0.0132859601f, -0.0328984186f, -0.167676523f, 0.224003494f, 0.082010068f, 0.104387268f, -0.127499595f,
    -0.0555252023f, 0.120648183f, -0.0119790994f, 0.324493617f, 0.0655503273f, -0.0918410942f, 0.39847371f, -0.0653037429f,
    -0.109760664f, -0.090418905f, -0.0680992901f, 0.256636977f, -0.139221624f, 0.025514286f, 0.16214855f, 0.325395346f,
    -0.0942052454f, -0.261681676f, 0.378990173f, -0.0793500617f, -0.242726609f, 0.0260426197f, -0.216794223f, -0.0157644469f,
    -0.416789144f, 0.0873027444f, 0.0948165283f, -0.320391834f, 0.0258272141f, 0.077362895f, -0.198436752f, -0.134489387f,
    0.14795512f, 5.05159801e-38f, 5.87265409e-39f, -1.07683341e-39f, 0.0447978638f, 0.133338124f, 0.36841929f, -1.70726918e-39f,
    -5.63824769e-39f, -7.96078779e-39f, 0.0870188475f, 0.250131816f, 0.464348048f, 5.30151006e-39f, -8.68950783e-40f, 1.15582741e-39f,
    -0.185429916f, 0.0467846133f, 0.145731449f, -0.0247550737f, 0.0282738768f, 0.107330956f, -4.406788e-39f, -5.99204332e-39f,
    -6.06506218e-39f, -0.0514422096f, -0.0675517172f, -0.162759066f, -0.0839164332f, -0.0174192861f, -0.0295432899f, 0.0725777596f,
    0.120751351f, 0.147184253f, -3.28816086e-39f, 2.40414051e-39f, 1.24796558e-39f, -0.230890468f, -0.0551177114f, 0.0746041089f,
    0.233459905f, -0.213184163f, -0.310183108f, -0.483163953f, 0.0423345268f, -0.142472565f, 0.017411992f, 0.0883577093f,
    0.459574074f, -0.0738714188f, -0.216314316f, -0.0504213199f, 0.188167632f, 0.201367781f, -0.186884314f, -0.311538398f,
    0.28903833f, 0.133575991f, -0.147568852f, 0.103806607f, 0.236268952f, 0.146809787f, -0.195525125f, -0.551215589f,
    -0.0714074597f, 0.139966086f, 0.165980637f, 0.23715055f, -0.0388918445f, 0.0156276878f, 0.00722186593f, -0.220729589f,
    -0.143034816f, -0.0940219238f, 0.176268563f, 0.169090807f, -0.434097052f, -0.0775995776f, -0.138694793f, -0.410363585f,
    0.0747697204f, -0.132592961f, 0.111988038f, 0.133423373f, -0.306619883f, -0.216733575f, -0.17581211f, -0.0580826402f,
    -0.00580328982f, 0.000972460024f, -0.0324129947f, 0.17076084f, 0.0321990512f, 0.0617572516f, 0.0738637596f, -0.0417884327f,
    -0.00441447739f, -1.12032691e-39f, -2.73740068e-38f, -6.14837638e-39f, 0.283049971f, -0.0313758813f, -0.0968162566f, -2.80464282e-39f,
    3.84862139e-39f, -1.37593945e-38f, 0.147933856f, -0.296693444f, -0.115189269f, 4.30655452e-39f, 3.50818153e-39f, -2.20601933e-39f,
    0.0670903996f, 0.0828226954f, 0.0450055934f, 0.132950515f, -0.133903995f, -0.164162785f, 5.36099378e-39f, -1.06582761e-40f,
    -4.23989335e-39f, 0.161750183f, -0.00870892592f, 0.0263558663f, -0.0101171853f, -0.015223166f, 0.006908332f, 0.0365813933f,
    -0.0956166834f, 0.0245180707f, 2.71591261e-39f, -6.1822878e-39f, -8.73019593e-39f, 0.0925351605f, 0.00734297326f, 0.0824167579f,
    -0.165576711f, -0.0419742092f, -0.155759826f, 0.0347219184f, -0.121953808f, -0.0638770759f, 0.201969847f, -0.0665880218f,
    -0.0990115628f, -0.130888f, -0.265438199f, -0.22604014f, 0.0435138084f, 0.0399453342f, 0.0938196406f, 0.0711272135f,
    -0.0932323709f, 0.0167479254f, -0.0714842081f, -0.22050193f, -0.000814892468f, -0.101523735f, 0.013900673f, -0.174512282f,
    -0.0317067876f, 0.0141962552f, -0.0143440459f, -0.431565434f, -0.0351225398f, -0.0148092164f, 0.00440793997f, 0.0744188428f,
    0.0312335379f, 0.211084262f, 0.37489742f, 0.282690853f, 0.296469212f, 0.0339931101f, 0.0342507288f, 0.0491061211f,
    -0.0950951204f, -0.0074189445f, -0.0076011545f, 0.20357351f, 0.0777412578f, -0.0537989996f, -0.0334052965f, -0.0192091614f,
    -0.00292996503f, -0.0826561153f, -0.0785967559f, 0.0260854922f, 0.0275507607f, -0.0351784788f, 0.127208576f, 0.165811524f,
    0.205584854f, 6.75333654e-39f, -1.09626942e-39f, 2.17767387e-39f, -0.0878713652f, 0.150945544f, 0.190861747f, 3.70413631e-40f,
    -3.45668942e-39f, 2.36167893e-38f, -0.0439659655f, 0.0842278451f, 0.0524857156f, 3.80102208e-39f, -1.60996582e-39f, 2.88962989e-38f,
    0.0348922201f, 0.0314915217f, 0.083470501f, -0.050032828f, 0.0946873203f, 0.0875485167f, -5.18861865e-39f, -2.96526526e-39f,
    7.93712266e-40f, -0.0379994996f, 0.0588747449f, 0.0800554231f, -0.0366849452f, -0.0466375388f, 0.0562467203f, -0.02708642f,
    0.0830814913f, 0.15192543f, -7.21553803e-39f, -7.9909157e-39f, 2.16117778e-39f, 0.012313135f, 0.0383738615f, 0.107379206f,
    0.125831664f, 0.296593726f, 0.303937197f, 0.257138282f, 0.0666795447f, -0.0147015955f, 0.00366077782f, 0.128812805f,
    0.234702781f, -0.0394546911f, -0.0763656199f, 0.190234676f, 0.141891256f, 0.147024632f, 0.310166806f, 0.0477241129f,
    0.00759138772f, 0.0848777965f, 0.157783061f, 0.0606157891f, 0.0296375267f, 0.0677204877f, -0.0748341754f, -0.0753030032f,
    0.0113172764f, 0.0420185365f, 0.0472269058f, -0.0634470135f, 0.056330815f, 0.0741320178f, 0.00113221514f, -0.0393685773f,
    0.0436793491f, -0.00280793151f, 0.00244196225f, -0.0283105541f, 0.00948477443f, 0.014430278f, -0.000726727943f, 0.17935507f,
    0.00829914864f, -0.133726165f, 0.0783619732f, 0.0542684458f, 0.0476395153f, 0.0549447685f, -0.0588943698f, -0.0182246286f,
    0.146308824f, 0.0728556365f, -0.15426968f, 0.0311163664f, -0.0537009835f, 0.127198786f, -0.112563074f, -0.230607763f,
    -0.136144444f, -4.04301512e-39f, -6.25000975e-39f, 5.16952736e-39f, 0.313760906f, -0.186025426f, -0.222649083f, 7.12677418e-39f,
    3.7649919e-39f, -1.24226846e-38f, 0.189697072f, -0.193915829f, 0.225165457f, -5.91068393e-39f, 4.82380601e-39f, -5.91059284e-39f,
    0.132654637f, -0.0719459429f, -0.394014269f, 0.141234577f, -0.129214734f, -0.483564407f, 1.32711372e-39f, 1.73450342e-39f,
    -5.01033986e-39f, 0.219858348f, -0.046670109f, -0.27735889f, 0.0850031078f, 0.0347502232f, -0.139440477f, -0.0230418518f,
    -0.109704614f, 0.310758412f, 5.63668944e-39f, -3.55722698e-39f, -2.52619641e-39f, 0.0959389061f, -0.114206642f, 0.0544243678f,
    -0.261511266f, 0.194369867f, -0.0528977104f, 0.26067701f, -0.328566432f, -0.125423923f, 0.102584116f, -0.00736655574f,
    -0.149131522f, 0.215278193f, 0.112530321f, -0.271174729f, 0.104827218f, 0.195565328f, 0.386293381f, 0.103528976f,
    -0.0548789687f, -0.226710364f, 0.150375783f, -0.356323779f, -0.116804309f, 0.00206760084f, -0.0390962809f, 0.0599284768f,
    0.143400699f, -0.0974279791f, -0.13454695f, -0.097800687f, 0.00177094166f, -0.012247772f, -0.125034273f, 0.21480085f,
    0.0175357405f, 0.216178179f, -0.217863187f, 0.118111849f, 0.3556692f, -0.154452026f, -0.236578986f, 0.164763182f,
    0.384508669f, -0.397084415f, 0.261013299f, 0.137794346f, -0.00614645658f, -0.107264504f, -0.161943093f, -0.140329853f,
    -0.0646278337f, -0.00706432294f, 0.0440610871f, 0.0561426096f, 0.0110244257f, 0.0650490969f, -0.303895235f, -0.0714168921f,
    0.000470905739f, 3.10324832e-39f, 3.42076013e-39f, 3.73324408e-39f, 0.114666037f, -0.0844900012f, 0.00386908255f, 6.99141435e-40f,
    5.2346457e-39f, -2.09284486e-39f, 0.000155319285f, -0.0500767305f, 0.0918079838f, 3.42820102e-39f, -5.33703017e-39f, 5.56953642e-39f,
    -0.128014505f, -0.159169853f, -0.123830572f, 0.0291382354f, 0.0246038605f, -0.0181495696f, -5.49404286e-40f, -6.02910626e-39f,
    -4.03918677e-40f, 0.0994025022f, -0.00188886898f, -0.0302854441f, 0.00990793481f, 0.002809803f, 0.0179742724f, -0.00643060124f,
    0.00884595327f, 0.0255111773f, 4.66240025e-41f, 6.80943052e-39f, 2.66202988e-39f, 0.0143115297f, 0.150829479f, 0.0296864957f,
    -0.242434964f, -0.0189463608f, 0.156004995f, -0.116364494f, 0.123673774f, 0.0742630661f, -0.0161820166f, -0.106561057f,
    0.0236939993f, 0.00897441525f, -0.00354683003f, -0.0576404706f, 0.00940307882f, 0.0337080397f, -0.0418457016f, 0.155398086f,
    0.173942998f, 0.0375465453f, 0.167785287f, 0.267385453f, 0.166443631f, -0.0118272211f, 0.0809588879f, 0.109437011f,
    -0.00211493997f, 0.031290058f, 0.0353296176f, -0.0990546718f, -0.016678445f, 0.0335415713f, -0.0286454037f, -0.0820196122f,
    0.000370017602f, 0.307842255f, 0.156118646f, 0.0897585899f, 0.103356846f, -0.0121664656f, 0.0589617379f, 0.0700727999f,
    -0.123018585f, 0.0556325279f, 0.0086580012f, -0.114297479f, -0.0543493479f, -0.0665562898f, 0.0451382734f, 0.104593404f,
    0.00337657006f, 0.00845725928f, -0.0335694924f, -0.0607741587f, -0.00512720039f, 0.0662633926f, -0.426424354f, 0.172930747f,
    -0.000355143013f, 6.09822503e-38f, -3.16264936e-39f, -3.54821215e-38f, -0.621072888f, -0.112631008f, 0.159628078f, 4.13740995e-38f,
    8.85798314e-39f, 1.25314983e-38f, -0.0162667725f, -0.707178175f, 0.0858687535f, 5.38011309e-39f, -6.54756707e-40f, 2.17536032e-39f,
    -0.153958276f, 0.0392273776f, 0.14352645f, -0.192715272f, -0.205313027f, -0.206803009f, 2.22747882e-39f, 6.81535661e-39f,
    -6.73346893e-39f, 0.190183222f, 0.0615172684f, 0.104523636f, 0.195312455f, 0.15563342f, 0.175015062f, 0.0255710725f,
    -0.215648383f, -0.204322919f, 3.42724534e-39f, 4.61003933e-39f, 3.579914e-39f, -0.131278202f, 0.343593866f, 0.0421819128f,
    0.214936912f, 0.239509672f, 0.473827899f, -0.242443725f, -0.0491996706f, -0.239630118f, -0.322493583f, 0.106005095f,
    0.112940177f, 0.0210848972f, 0.331761062f, 0.383942574f, 0.536439836f, 0.197111204f, 0.654342949f, -0.0852201805f,
    -0.133667275f, -0.0787705183f, 0.00275000697f, 0.0721383095f, 0.00154462527f, -0.241546452f, -0.576906681f, 0.0121666007f,
    0.0614576861f, -0.13436766f, 0.0437503904f, -0.117687412f, -0.177398354f, -0.15799731f, -0.0217498634f, -0.142042816f,
    0.0960867777f, -0.092966482f, -0.168823257f, -0.28944242f, -0.0657463223f, -0.206079304f, 0.0403650254f, 0.538616598f,
    0.651558816f, 0.22221823f, 0.15644075f, 0.403598785f, 0.218385175f, 0.013571294f, 0.0853127167f, -0.0457561836f,
    0.490659088f, -0.190406799f, -0.159904718f, 0.0672772005f, 0.164329439f, -0.142365873f, 0.161369383f, -0.0887620896f,
    0.115161851f, -9.23932129e-41f, 6.9763602e-39f, -2.69284303e-39f, 0.261883527f, 0.0301614795f, 0.175337121f, -5.77610463e-39f,
    -1.40061603e-38f, 7.90337379e-39f, 0.255372435f, 0.0782940388f, -0.246515721f, 6.16276351e-39f, 4.34649853e-39f, 1.89925968e-39f,
    0.289312392f, -0.00595213054f, 0.591307104f, -0.00611543842f, 0.213191316f, 0.260229975f, 6.42177812e-39f, 1.20682626e-40f,
    -2.22351734e-39f, -0.060230501f, 0.0328788944f, -0.0679869205f, 0.0998400673f, -0.0391702801f, 0.233357817f, 0.385886163f,
    0.0552435629f, 0.0369225405f, 3.0366418e-39f, -3.0831537e-39f, 2.61504994e-39f, -0.0803206861f, -0.246249899f, 0.144806311f,
    -0.746297896f, 0.380729973f, -0.167205974f, 0.166639775f, -0.0366636664f, 0.126884133f, -0.0323367268f, 0.0566768833f,
    0.290292054f, 0.0249991175f, 0.0652282014f, 0.328714997f, -0.193517357f, -0.0185748972f, -0.462522328f, 0.129849777f,
    0.11510545f, 0.209198087f, 0.594396293f, -0.0964303762f, 0.125056013f, -0.0293502863f, -0.073234953f, 0.0992881358f,
    0.582510591f, 0.159827232f, -0.103202857f, 0.139163449f, -0.153614596f, 0.24664259f, -0.528335631f, -0.0565154664f,
    0.369115293f, -0.266950279f, 0.258834898f, -0.0556116924f, 0.108387604f, 0.06196969f, 0.257888943f, -0.0196352694f,
    -0.337512344f, -0.196730748f, -0.516195834f, -0.167766273f, -0.285246819f, 0.2286046f, -0.232134745f, 0.367500603f,
    0.0827278793f, -0.0315216966f, -0.0866130069f, -0.237343222f, 0.14436999f, -0.150523946f, 0.535009027f, 0.206056327f,
    0.174305052f, 3.4306589e-39f, 2.76204447e-38f, -4.43716394e-39f, -0.196717083f, 0.167528391f, -0.0292383339f, 2.97973226e-39f,
    -1.81743366e-39f, 4.31997335e-39f, -0.00242144102f, 0.183870405f, 0.216266245f, 2.34901623e-39f, -1.95072097e-39f, 3.2283142e-39f,
    0.181586713f, 0.107122861f, 0.0590456203f, 0.103321545f, -0.0600123666f, 0.189928293f, 7.75328351e-38f, -1.41858068e-39f,
    3.51643939e-39f, -0.0166968461f, -0.104237258f, 0.0987413228f, -0.0696568117f, 0.00146455737f, 0.00610653777f, -0.129627675f,
    0.0542127602f, 0.15508765f, -5.60972846e-39f, -4.71119346e-39f, 9.91732554e-40f, -0.258911014f, -0.111710548f, 0.0128681902f,
    0.214939117f, -0.197749481f, 0.13436535f, -0.570852876f, -0.159359813f, -0.232403606f, -0.263094038f, 0.0166012011f,
    -0.0178558137f, -0.00974804815f, 0.058387842f, 0.248861417f, -0.419875681f, -0.00861978903f, -0.106155403f, -0.0687991604f,
    0.0630181208f, -0.094827868f, -0.199035674f, 0.0645544901f, -0.0612770021f, 0.165064111f, 0.315630943f, -0.101419799f,
    -0.135080501f, -0.0675473735f, -0.0471453369f, 0.127700731f, 0.057948567f, 0.0791845024f, 0.394159704f, 0.188268974f,
    -0.0107643008f, -0.0962234735f, 0.23334007f, -0.139947698f, -0.242085993f, -0.00118846435f, -0.0881060511f, 0.439318061f,
    -0.170813397f, 0.0074362061f, 0.355457485f, -0.083647728f, 0.143614575f, 0.113833435f, 0.118561536f, -0.145342797f,
    -0.00536599476f, 0.0171488523f, 0.000864811649f, 0.104497373f, -0.0110793477f, -0.016311625f, 0.160798758f, 0.159763172f,
    -0.0904520527f, 1.76691517e-38f, 4.42965579e-39f, -1.01599183e-39f, 0.0382627361f, -0.105964646f, -0.163854003f, 2.14163247e-40f,
    2.15588087e-39f, -6.11819241e-39f, 0.238642722f, -0.149538055f, -0.0611186177f, 9.80258723e-40f, -5.7140243e-39f, 2.5123684e-39f,
    -0.0861402005f, -0.103640944f, -0.133766726f, 0.182093114f, 0.10980285f, 0.130764186f, 5.24707802e-40f, 6.84481331e-39f,
    5.33720393e-39f, 0.0239244718f, -0.034000989f, 0.124383777f, 0.00307674031f, 0.00514762523f, 0.00855356548f, 0.147659957f,
    0.0778881162f, 0.0303849466f, -1.43688584e-39f, -4.80818013e-39f, -4.4429457e-39f, 0.130249068f, 0.13460505f, 0.0675440431f,
    0.137410432f, 0.0998633951f, 0.0637000576f, 0.300295502f, 0.0816146135f, 0.0482405461f, -0.111552216f, 0.0253336597f,
    -0.195480645f, 0.410430402f, 0.172600344f, -0.0175170023f, 0.432602912f, 0.46732536f, 0.208821371f, 0.196129382f,
    0.0439892076f, 0.123741895f, 0.176466942f, 0.181969255f, 0.152755886f, -0.0777217448f, -0.0257602222f, 0.0271911193f,
    -0.0321024954f, 0.0440062992f, 0.0525708087f, -0.08489649f, -0.083857879f, 0.0481744483f, 0.0653843582f, -0.0866767764f,
    -0.0603829511f, 0.165274858f, 0.0477390662f, -0.0252121966f, 0.0848113224f, -0.156624258f, 0.15928854f, 0.172944859f,
    -0.158272311f, -0.287651449f, 0.0889678076f, -0.0286729839f, -0.264606535f, 0.0142368441f, -0.0118369227f, 0.0587690659f,
    0.129708454f, -0.176208928f, -0.209526628f, 0.0749358684f, -0.0266298074f, -0.0535171852f, 0.444892585f, -0.255294681f,
    -0.167738497f, 7.94058723e-38f, -6.03424622e-39f, -4.62979764e-39f, 0.113761052f, 0.0553375296f, -0.12083298f, -6.13821977e-39f,
    -8.45885971e-39f, -1.0562517e-38f, -0.0267344695f, -0.352687448f, 0.144835696f, -1.30816817e-39f, -1.31911791e-39f, 8.42072477e-40f,
    0.202043444f, 0.158723056f, 0.172294125f, -0.0190672521f, -0.245249957f, -0.0141567355f, 2.10589235e-39f, -5.63780151e-38f,
    6.63321107e-38f, 0.0255313087f, -0.112542182f, -0.106001273f, -0.145394534f, -0.0840261206f, -0.125489369f, -0.0664069057f,
    -0.218549281f, 0.336115718f, -2.86242397e-39f, -2.73501511e-39f, -3.68634262e-39f, -0.20359382f, -0.126121283f, -0.141939461f,
    -0.615043223f, 0.0859198198f, 0.000736462942f, 0.0348974019f, -0.303645253f, 0.00692626601f, 0.116412401f, 0.0670107156f,
    -0.0109040923f, -0.0518515408f, 0.0303710792f, -0.215104416f, -0.033151187f, -0.0440507606f, -0.164449885f, -0.117448516f,
    -0.0399666652f, 0.251108944f, 0.139059827f, -0.47125122f, -0.346887976f, -0.074437499f, -0.163367927f, 0.135735735f,
    -0.0407367423f, -0.165841967f, -0.399517804f, 0.0847584978f, 0.339475363f, 0.2511172f, 0.0680470765f, 0.35869661f,
    0.100364864f, 0.177223772f, 0.426809579f, 0.209945604f, -0.0064276401f, -0.097496815f, 0.113234699f, -0.511716366f,
    -0.294044137f, -0.137404993f, 0.229892805f, 0.110680006f, -0.000499520276f, 0.016693553f, -0.109866604f, 0.0390457772f,
    -0.153616324f, 0.0144336112f, -0.171835512f, -0.224104583f, 0.0999942347f, -0.0532582104f, 0.207864225f, 0.0220221207f,
    0.0279012881f, 3.52945044e-39f, 3.91464497e-39f, -4.02405555e-39f, -0.0525130518f, 0.137816802f, -0.0251118671f, 4.63112887e-39f,
    -6.55999379e-39f, -1.30214875e-38f, -0.0657840446f, -0.0610241368f, 0.156188831f, -1.29372919e-39f, 2.95434354e-39f, 3.15292715e-39f,
    0.0936235338f, 0.0115860878f, 0.0235145576f, 0.0652831271f, -0.108415425f, 0.18122302f, 3.55816585e-38f, -3.89404308e-39f,
    3.24678192e-39f, -0.0197076313f, -0.0309142098f, -0.00565476669f, 0.0061874832f, -0.0194302835f, -0.0860735178f, 0.0186269935f,
    -0.059021987f, 0.162555531f, 2.79035519e-39f, 2.93224506e-40f, -3.5957767e-39f, -0.14371866f, 0.11821413f, 0.0270015504f,
    -0.0924563408f, -0.062793918f, -0.20373635f, -0.515351713f, -0.0835327953f, -0.233723402f, 0.148743048f, 0.129967198f,
    0.00780584337f, -0.00315397047f, 0.043896392f, 0.0618922077f, 0.127885789f, -0.0117875757f, -0.0414119549f, -0.0529692024f,
    0.155255303f, 0.000459163421f, -0.0274276175f, 0.00446635345f, -0.01353769f, -0.0118020559f, 0.315512031f, -0.141214371f,
    -0.0530210659f, -0.119880453f, -0.0949610919f, 0.125274971f, 0.0938962102f, -0.026244333f, 0.0431993604f, 0.139110222f,
    -0.0469175391f, -0.180304095f, 0.327686638f, 0.152700052f, -0.308978498f, -0.0632356256f, -0.146592781f, -0.156028196f,
    0.144289911f, -0.073209852f, -0.199208915f, -0.0495703146f, -0.0618730858f, 0.0419330411f, 0.0756107196f, 0.0277319588f,
    -0.242153108f, -0.0369973667f, -0.068645373f, 0.025062887f, -0.0211166833f, 0.0657037273f, -0.00821357779f, -0.0362551659f,
    0.114763707f, 3.24707619e-39f, -5.71782462e-39f, -4.94066169e-39f, 0.10554608f, 0.0549335517f, 0.132592782f, -1.1914585e-38f,
    1.07061445e-38f, 8.60161278e-39f, 0.402430058f, 0.0682673752f, 0.229813293f, 2.7199021e-39f, -4.68184579e-38f, -2.21382456e-39f,
    -0.187817708f, -0.0611003377f, 0.0448219962f, 0.251610607f, -0.0119148893f, 0.145927474f, 2.99926917e-40f, -4.84444434e-39f,
    -6.54658617e-41f, 0.00956146605f, 0.0127605759f, 0.0487294123f, -0.101794764f, 0.00451602507f, 0.0374487303f, 0.203503683f,
    0.074133575f, 0.23924838f, -3.13006917e-39f, 6.42420236e-39f, 4.65363933e-39f, -0.0340088531f, -0.0997031629f, 0.0333163179f,
    0.491603076f, 0.261887759f, 0.167142868f, -0.195706397f, 0.00994898565f, 0.0736079216f, -0.0290772785f, -0.0612251461f,
    0.206030145f, 0.266857892f, -0.193481624f, 0.183461249f, -0.0334586501f, 0.120555289f, 0.0492387749f, 0.166205466f,
    -0.0412379652f, 0.0500390865f, -0.374329746f, -0.25748986f, 0.100144595f, -0.303353876f, 0.201542303f, -0.338252842f,
    -0.103133775f, 0.151568383f, 0.0637442991f, -0.111964978f, -0.0145702865f, -0.39794597f, 0.0529218502f, -0.13103871f,
    -0.163750619f, 0.368431509f, -0.00966644194f, 0.0177373737f, 0.0991750732f, -0.0447354354f, 0.0740453675f, -0.259207994f,
    0.0221912283f, 0.0117407339f, -0.142079607f, -0.0204404946f, -0.0490870215f, -0.244240329f, -0.306039214f, -0.0288254078f,
    -0.091543451f, 0.0258932859f, 0.0437901989f, -0.225840136f, 0.222444266f, -0.0254970286f, 0.371181309f, 0.232094049f,
    -0.101852126f, 2.64925284e-39f, 3.20147654e-39f, 4.85830178e-39f, -0.169895574f, 0.108335324f, -0.190672934f, 1.31880346e-38f,
    -1.22017671e-38f, -1.31367247e-39f, 0.386143595f, -0.147938311f, -0.24169144f, 3.41124531e-39f, -2.71700562e-40f, -3.80824157e-39f,
    0.372632056f, 0.112387799f, 0.226451799f, 0.157463253f, -0.195546225f, -0.292792976f, -4.6844693e-39f, -6.94066212e-39f,
    6.13373561e-40f, 0.103064127f, 0.073819153f, -0.113225043f, 0.0135545833f, 0.0383743234f, -0.0404865034f, 0.113750532f,
    0.102107972f, 0.0930489898f, 6.11100095e-39f, 5.56982508e-39f, -2.2227172e-39f, -0.27923736f, 0.0825211033f, -0.165998101f,
    -0.0116441604f, 0.197056353f, -0.236489773f, -0.0209642965f, 0.0115143415f, -0.230602235f, -0.195006773f, 0.0207949933f,
    -0.37950483f, -0.296983302f, -0.19633989f, -0.397762507f, 0.576404393f, -0.356916606f, 0.173745036f, 0.0759679377f,
    0.0449589528f, -0.0933631659f, 0.428990453f, 0.181118116f, 0.236145839f, 0.239943415f, -0.101438642f, 0.0899139866f,
    0.287077159f, 0.187996417f, 0.067687735f, 0.261007577f, -0.0556379296f, 0.0754803792f, -0.0437995158f, -0.12567316f,
    0.0247641262f, 0.0202983674f, 0.120814949f, 0.151277676f, 0.0479347557f, 0.259514689f, -0.0821638256f, -0.138625398f,
    -0.0823128596f, -0.371386856f, 0.404520333f, -0.044216767f, 0.202750877f, 0.0623212643f, 0.139660016f, 0.119773738f,
    -0.130841643f, -0.0653543249f, -0.237360999f, -0.213983312f, -0.0536138415f, -0.19958058f, 0.378726304f, 0.124956369f,
    0.261334777f, -1.33088602e-39f, -2.60907201e-38f, -4.31984668e-38f, -0.302928239f, 0.0583665036f, 0.112171136f, 7.52122848e-39f,
    -4.312681e-39f, 1.24162106e-38f, -0.00688673928f, -0.0128744487f, -0.0969018117f, -3.87958448e-39f, 6.25475595e-39f, 3.42446516e-39f,
    0.377591044f, -0.11540205f, 0.0426984504f, 0.0301128123f, -0.107790478f, 0.0653941482f, 2.8322442e-39f, -4.21473864e-39f,
    6.10574047e-39f, -0.0282969233f, 0.183048904f, 0.153527513f, 0.0699658766f, -0.022421021f, 0.0603680313f, 0.0780365318f,
    0.0409970134f, -0.027899038f, 5.64530743e-39f, -3.96994021e-39f, 5.3846547e-39f, 0.0935707912f, 0.110174552f, 0.114078872f,
    0.41740185f, 0.356764287f, 0.417035282f, 0.200180396f, -0.0106417406f, -0.267192334f, 0.184182003f, 0.0728988275f,
    0.185464397f, 0.133264482f, 0.0416777097f, 0.453518212f, 0.292788476f, -0.0425696895f, 0.437758714f, 0.089957796f,
    -0.149613783f, -0.297984868f, 0.150395274f, 0.0773674697f, -0.0657402128f, -0.082341291f, 0.0872211158f, -0.103125028f,
    0.0696961954f, -0.00912059285f, 0.0519109108f, -0.0793537274f, 0.0335405841f, 0.0526203811f, -0.0992046744f, 0.00773819769f,
    -0.0587756149f, -0.351223111f, -0.338778913f, -0.377397329f, -0.0715158135f, -0.0213040095f, -0.187298939f, 0.238643169f,
    0.175567374f, 0.127321154f, 0.00339834113f, 0.107781217f, 0.252038211f, 0.015501624f, 0.0437936336f, -0.185715228f,
    0.043676924f, 0.167946517f, 0.00748765096f, -0.0129065523f, -0.0644519627f, -0.0178270992f, 0.0503221154f, 0.121110201f,
    0.106725626f, -3.28070595e-39f, -3.02827324e-39f, -3.93922374e-39f, 0.161491126f, 0.0752094612f, -0.214800403f, -2.21109203e-39f,
    -4.39925321e-39f, -7.69012979e-39f, 0.358371407f, -0.126113713f, -0.542264819f, -1.325037e-39f, -6.475829e-39f, -2.10381142e-39f,
    0.25299108f, 0.202016711f, 0.150960967f, 0.0559512712f, -0.059493959f, -0.299149185f, 6.26672164e-39f, 6.78306929e-39f,
    -2.45369603e-39f, 0.0766245201f, -0.132250845f, -0.142666057f, -0.0774960294f, -0.0826779678f, -0.117845394f, 0.161309123f,
    -0.0160105117f, -0.202234641f, 1.84953461e-39f, -4.25967828e-39f, -2.41163466e-39f, -0.171145022f, -0.085579671f, 0.0786622912f,
    -0.0650327429f, -0.325088829f, -0.424957752f, -0.135149047f, -0.259234875f, -0.112574913f, 0.102992862f, -0.0254325755f,
    -0.0754816309f, 0.199581742f, 0.199345767f, 0.0995024815f, -0.327936649f, 0.303152263f, -0.132671133f, 0.136333525f,
    0.102231741f, 0.0571574531f, 0.0152353663f, 0.00780761195f, -0.00105139695f, 0.0789902508f, 0.0671327859f, -0.36516729f,
    -0.048656784f, 0.124805562f, 0.1723499f, 0.018441977f, 0.160848871f, 0.058848206f, 0.141060531f, 0.292262375f,
    0.110474385f, -0.0621648654f, 0.102835298f, 0.0800066516f, 0.0646216273f, -0.308252931f, -0.28831318f, 0.1571697f,
    -0.146581113f, 0.0783238932f, 0.178077862f, 0.178067684f, 0.129263133f, 0.0766912401f, 0.0261591561f, 0.169383481f,
    0.0538096651f, -0.0410704538f, 0.0919912457f, -0.0820313841f, -0.00816751737f, 0.0490118712f, -0.11090181f, 0.0420940667f,
    -0.120758019f, 5.41882116e-40f, 1.93876032e-38f, -3.28609535e-39f, -0.108960189f, -0.148977757f, 0.0197414253f, -2.34051035e-39f,
    3.3838219e-39f, 1.73368646e-41f, 0.170205161f, 0.0425454974f, 0.27622059f, 2.41604594e-39f, -4.050868e-39f, -2.90393323e-39f,
    -0.152975664f, -0.102614507f, -0.317910373f, 0.0123344418f, -0.025609633f, 0.11595615f, -5.49201266e-38f, -5.17635953e-38f,
    6.49717358e-38f, 0.0532055646f, 0.0579812862f, 0.120778143f, -0.0106154261f, 0.0529546142f, 0.040536169f, 0.0781416222f,
    -0.0134937614f, 0.00538074225f, -6.68107719e-39f, -2.91319861e-39f, -3.43841088e-39f, -0.116934977f, 0.275488406f, -0.00653448608f,
    -0.149030343f, -0.0509445667f, 0.0666746199f, -0.10890042f, 0.116774358f, -0.0396485552f, -0.0746133849f, -0.10223873f,
    -0.117590398f, 0.0699569508f, -0.341032743f, -0.261761874f, -0.234467998f, -0.210441187f, -0.21596691f, -0.0169326458f,
    -0.0693094805f, 0.0405765474f, 0.216630176f, 0.25333637f, 0.189383373f, 0.137904301f, -0.0539576635f, 0.147344023f,
    0.115896821f, 0.0726220906f, 0.00512036541f, 0.161390215f, -0.105357155f, -0.0596218593f, -0.110955797f, -0.198114455f,
    -0.0892847255f, -0.131583169f, 0.0254111085f, 0.0386996008f, -0.116836667f, 0.00404781289f, 0.150312468f, -0.105483912f,
    0.21171172f, -0.20759584f, -0.0479547419f, -0.0969880521f, -0.0591377281f, 0.0771271586f, 0.0579764545f, -0.0557602905f,
    -0.0273728464f, -0.389042437f, -0.415247321f, 0.174620807f, 0.401703715f, 0.34338662f, 0.335400492f, 0.255577743f,
    0.226335049f, -5.90058057e-39f, -2.58990785e-40f, 2.91669065e-39f, 0.323637813f, 0.0581182316f, -0.0213811081f, -6.58867276e-39f,
    -7.18873679e-39f, -1.27176243e-38f, 0.131641567f, -0.185102955f, -0.133523926f, 2.40208341e-39f, -1.99657005e-40f, 6.52761258e-39f,
    0.072633639f, -0.227968529f, 0.157457411f, -0.248485222f, 0.185382888f, -0.140040487f, -3.48880438e-39f, 1.51103415e-39f,
    -2.49360221e-39f, -0.06106814f, -0.216793969f, -0.162237197f, -0.0247070938f, -0.00783140771f, 0.221692473f, -0.209680796f,
    -0.158887014f, 0.0633718297f, 1.28076241e-38f, 1.83887773e-39f, 4.55167805e-39f, -0.270449579f, -0.278846264f, 0.0994697064f,
    -0.144694701f, 0.29990828f, 0.102096945f, 0.495443821f, 0.597224593f, 0.627640426f, 0.0960717946f, 0.172911197f,
    0.126011968f, -0.35040015f, -0.0798135698f, 0.170078501f, -0.356758177f, -0.058441475f, 0.0803168491f, 0.362167776f,
    -0.214987397f, -0.18509081f, -0.150385007f, -0.282382339f, -0.0109538557f, -0.0644132197f, -0.0999818742f, -0.220081314f,
    -0.228995204f, -0.0226896312f, -0.0554448999f, -0.676681876f, -0.413342178f, -0.183184311f, 0.102144599f, -0.118316904f,
    -0.0960713923f, 0.177276313f, 0.598175108f, 0.635442853f, 0.218189523f, -0.0245026443f, -0.0879614875f, -0.512718737f,
    -0.407700807f, -0.250812143f, -0.318906814f, -0.198898837f, 0.0539779589f, -0.172929123f, -0.302105069f, 0.181527928f,
    0.11021509f, 0.141998485f, -0.0888374299f, -0.00230158935f, 0.0697730407f, -0.0158675592f, 0.162720606f, 0.259703547f,
    0.0396418832f, 4.71613164e-39f, 2.49526975e-39f, 9.42025695e-40f, -0.167808712f, 0.198351875f, 0.0104710413f, 3.91533553e-38f,
    -9.15710431e-39f, -9.12974536e-39f, 0.0341725014f, -0.157677993f, 0.19649303f, 3.32247866e-40f, 1.3300004e-40f, 3.79471624e-41f,
    0.19490166f, 0.171696112f, 1.1634118e-05f, 0.182621002f, 0.0116563365f, 0.111823425f, -4.48705297e-39f, -4.68373138e-38f,
    -5.35536476e-39f, -0.00569454115f, -0.0252642259f, 0.194446295f, 0.00639590109f, -0.221466869f, -0.145609587f, 0.52073884f,
    -0.0122903902f, 0.0143869212f, 5.06159655e-39f, -2.32497836e-39f, -1.91662878e-39f, -0.192185402f, 0.182039529f, -0.202121451f,
    0.104428276f, -0.505457878f, 0.338950336f, -0.0168311074f, -0.0932622477f, -0.185972601f, -0.102373615f, -0.0795044005f,
    0.0423723273f, -0.0936150402f, 0.443197757f, 0.0708598718f, 0.468491435f, -0.136655182f, -0.173692778f, 0.142137945f,
    -0.201484203f, 0.0830610991f, 0.204964399f, 0.487169832f, -0.254730761f, -0.00659309793f, -0.384332985f, -0.0765891001f,
    0.0777243674f, 0.175918356f, 0.197954133f, -0.139566675f, -0.038120959f, -0.0177268963f, -0.270307899f, -0.213917643f,
    -0.0286713578f, 0.0349562056f, -0.07958702f, -0.224519849f, 0.190010235f, 0.0385551266f, -0.0139101688f, 0.150907576f,
    0.0790724233f, -0.083423689f, -0.173489287f, -0.00555081014f, 0.249214411f, 0.0890870243f, 0.187938169f, -0.17383112f,
    0.261226028f, -0.137074277f, -0.249014765f, 0.237783268f, 0.377187282f, 0.2318106f, 0.305581808f, 0.171184838f,
    0.180144593f, -1.20604714e-39f, 5.32854951e-40f, 5.86244983e-39f, 0.266129702f, 0.165910691f, -0.237764612f, -8.23101979e-39f,
    7.45869134e-40f, -1.30588868e-38f, -0.0194141883f, 0.204455525f, 0.000345756504f, 1.21852711e-40f, -8.39028857e-40f, 8.29002566e-40f,
    0.0526920557f, -0.20214732f, -0.00754519273f, -0.0514373481f, 0.0620521381f, 0.18728824f, -4.47246545e-39f, -1.35250805e-39f,
    -6.0497614e-39f, 0.189702749f, -0.367225528f, -0.212376922f, 0.0766434968f, -0.0614708811f, 0.159590662f, -0.114695311f,
    0.0391099676f, 0.0311547406f, 6.22041994e-39f, 1.04091337e-38f, -3.57608986e-39f, 0.0894251615f, -0.277613908f, 0.163583487f,
    -0.559404552f, 0.01752197f, -0.0450510792f, 0.130404532f, 0.378824711f, 0.715200305f, 0.0672620982f, 0.109616727f,
    0.139429122f, -0.363932997f, -0.458049774f, -0.274690658f, -0.147722304f, 0.191755936f, 0.235002413f, -0.257332474f,
    0.154912025f, 0.000939464255f, 0.0574225001f, -0.241237059f, -0.0942166597f, -0.0589249432f, -0.0952629671f, -0.357455403f,
    0.0270223301f, 0.0120386705f, -0.0917753726f, -0.0270717554f, -0.223361522f, -0.135317728f, -0.121011049f, 0.278953463f,
    0.160325199f, -0.0276646484f, 0.43451032f, 0.669630706f, 0.252405733f, 0.266942471f, 0.226123422f, -0.218224496f,
    -0.610489249f, -0.187576503f, -0.343580991f, -0.202166587f, -0.311546177f, 0.0417471603f, -0.174259841f, 0.152262375f,
    -0.0278455932f, -0.0231729914f, -0.0582386442f, -0.0988169387f, 0.0731642321f, -0.190333173f, -0.0660690144f, -0.00680905487f,
    0.120400034f, 2.7579936e-39f, -6.69746958e-39f, -3.27005889e-39f, -0.256850302f, 0.262203455f, 0.113689609f, -1.0041873e-39f,
    6.66681757e-41f, -9.36417699e-39f, -0.0832153931f, 0.0474588089f, 0.156975791f, -4.83898067e-39f, -3.10954575e-39f, 3.89565457e-39f,
    0.187272489f, 0.0370294191f, 0.147240072f, 0.127503559f, 0.178178817f, 0.249765977f, -7.0299977e-39f, -4.85115235e-39f,
    2.22059844e-39f, 0.0256054867f, -0.084832117f, 0.239593223f, -0.086053364f, -0.0375725813f, -0.112918891f, -0.325947642f,
    -0.26275748f, -0.0455247052f, 3.71182103e-39f, 2.63505768e-40f, -2.8665634e-39f, 0.118292853f, -0.0522642992f, 0.0829495862f,
    0.289515048f, -0.134224132f, -0.12025778f, -0.178278416f, 0.12635985f, -0.134062469f, -0.0931108817f, 0.210208803f,
    -0.0194034297f, 0.189269021f, 0.0809239f, 0.249694258f, -0.777238667f, -0.24204649f, -0.127731875f, 0.244241774f,
    -0.21182175f, 0.0646632686f, -0.274454355f, 0.0522721298f, 0.232833758f, -0.129014239f, 0.279710382f, -0.169903025f,
    -0.164308712f, 0.125288531f, 0.122674108f, 0.000138261195f, -0.075296022f, -0.106328242f, 0.322392583f, 0.0238394588f,
    -0.0841174647f, -0.155832589f, 0.0962050334f, -0.183825478f, -0.0148679735f, -0.174328178f, -0.174508974f, 0.506472826f,
    -0.166256309f, 0.0972318947f, 0.327301204f, -0.0991316736f, 0.193181247f, 0.0962125063f, -0.016436886f, -0.0073921741f,
    -0.0588345043f, -0.0340047143f, 0.0238995776f, -0.185032353f, 0.00346127525f, 0.0101839034f, -0.0329140276f, 0.0240541138f,
    -0.0498791859f, -6.7603066e-39f, -1.37469734e-38f, -1.70091009e-39f, -0.239307657f, 0.135221764f, 0.00766202388f, 1.5676382e-39f,
    3.44139845e-39f, 2.51365255e-38f, -0.0293521155f, 0.112099349f, -0.161208957f, -4.68049382e-39f, -1.38671655e-39f, 1.76395451e-40f,
    0.0809895471f, 0.166266531f, -0.0106354114f, 0.0173224118f, 0.0390173718f, -0.110565178f, 5.44818677e-39f, 4.73103585e-39f,
    5.19049639e-39f, -0.0834727064f, 0.0921439826f, 0.10546416f, -0.00610867795f, 0.0348940641f, 0.0544958264f, 0.017599877f,
    0.0957536325f, -0.0253888704f, -1.81260759e-40f, 3.17091982e-39f, 1.22418555e-39f, 0.0127893994f, 0.0207277462f, -0.0184689872f,
    0.264074475f, 0.03142621f, -0.122316219f, -0.302527785f, -0.0409831665f, 0.00660206983f, -0.0801891387f, 0.132399321f,
    -0.00445432076f, 0.172172949f, 0.11410407f, 0.12240646f, 0.118078828f, -0.198871076f, -0.0353402272f, -0.117395706f,
    -0.0173056293f, -0.0569274239f, -0.197520599f, -0.100231871f, -0.00146198529f, -0.111411296f, -0.087224111f, -0.00345030124f,
    0.0254919454f, 0.0558218621f, -0.0547248907f, 0.244173318f, -0.13234891f, -0.11126601f, 0.0442154966f, -0.0342510007f,
    0.0113041913f, -0.344296813f, -0.0955608338f, -0.171661764f, -0.198721528f, 0.199865147f, 0.171915963f, -0.149657875f,
    -0.071066834f, 0.132603809f, 0.0367224626f, 0.0912638828f, 0.0679996014f, -0.143881753f, -0.00241286657f, -0.0387974493f,
    0.226185888f, 0.0404060706f, -0.15722391f, 0.0312139094f, 0.111965559f, 0.00882569421f, 0.0786204785f, -0.304910094f,
    -0.457314849f, 4.61674034e-39f, -1.39285424e-39f, 4.24576619e-40f, 0.165582374f, 0.0567584001f, -0.2487102f, -1.03819401e-39f,
    -1.14992794e-39f, -9.59541926e-39f, 0.52025795f, -0.190986842f, -0.232921511f, 6.88043431e-39f, -2.0414088e-39f, -2.17751692e-39f,
    0.0121888602f, -0.179066509f, -0.4655177f, 0.204276085f, -0.168003514f, -0.477651596f, -5.08525327e-39f, -7.89502653e-38f,
    6.03104454e-38f, 0.0513703488f, -0.0603641048f, -0.207676962f, 0.0490837172f, -0.0588631518f, -0.203272358f, 0.194194168f,
    0.0955096409f, -0.0423618294f, 3.42300781e-39f, -2.99197961e-39f, -2.55878781e-39f, -0.0379778259f, -0.0364470221f, 0.055739712f,
    -0.168879569f, 0.0646515936f, -0.156008869f, 0.234933808f, 0.138000071f, -0.257470191f, 0.058257971f, -0.0628048927f,
    -0.235004023f, -0.0344184637f, 0.074660711f, -0.244603768f, -0.0241604615f, 0.0723729134f, 0.187626243f, 0.100395247f,
    0.000851514807f, -0.1693919f, 0.344762623f, 0.0100096241f, -0.0789609626f, 0.148311868f, 0.0186257139f, -0.163801193f,
    0.127052352f, -0.00932345446f, -0.0636402741f, 0.0870891213f, -0.167239353f, -0.0872288197f, -0.0406758338f, 0.0846517086f,
    -0.0910220295f, 0.06179386f, 0.307744831f, 0.0137508223f, 0.16745086f, -0.166354328f, -0.325596541f, 0.133601397f,
    -0.135521397f, -0.189177036f, 0.00711150654f, 0.0708687007f, -0.0733190253f, 0.0740310177f, -0.0445071273f, -0.165557384f,
    -1.76470672e-38f, -1.91415689e-39f, -3.84448896e-39f, -7.36354317e-39f, -8.62661615e-39f, 1.39243918e-38f, 2.84499742e-39f, 4.65589963e-39f,
    1.48820111e-38f, 2.70263951e-39f, 3.26125873e-39f, -4.17428315e-39f, -1.64724905e-38f, 1.01396696e-39f, 1.76853367e-38f, -3.0122536e-39f,
    1.53169769e-39f, 1.41049098e-39f, 1.86061075e-38f, 5.64113436e-39f, 1.50793013e-38f, -2.54384997e-39f, -1.45023741e-39f, -4.90659052e-40f,
    5.05845064e-39f, 3.74292145e-39f, -2.01211886e-39f, 1.75311897e-38f, 1.12804947e-39f, 3.01829179e-39f, 3.47367316e-39f, 1.60535274e-39f,
    -2.21566727e-39f, 1.07238933e-38f, -2.74793228e-40f, 2.81968716e-39f, -8.44156768e-39f, -7.01730894e-39f, -9.58886679e-39f, 5.7962567e-39f,
    1.02057646e-38f, -2.17288885e-38f, -2.75848405e-39f, -2.7622059e-39f, -2.02686052e-39f, 1.77241415e-38f, 1.21154682e-38f, 3.16068614e-39f,
    -2.35339445e-38f, -3.64421819e-39f, -7.93146562e-39f, 5.01962346e-39f, 1.0036492e-39f, 2.16822911e-41f, -1.17802594e-38f, 6.66098257e-39f,
    9.70680988e-39f, 5.54127363e-39f, 9.27265538e-39f, -8.05773942e-39f, 1.35492347e-38f, 7.09214109e-39f, 1.61942879e-39f, 7.24822612e-39f,
    1.96776846e-38f, 2.73993226e-39f, -1.45048278e-38f, -6.67620627e-40f, 7.67355523e-39f, 5.47612586e-39f, 8.85758938e-39f, -1.82507915e-40f,
    3.87299277e-40f, -1.59238891e-38f, 3.612724e-39f, 5.73112715e-39f, 2.06912508e-39f, -2.8060161e-40f, -2.06629222e-38f, -8.03370295e-39f,
    5.00910531e-39f, 1.81914465e-38f, 1.48966014e-39f, 3.06734425e-39f, -2.92651796e-39f, -7.68526168e-39f, 1.10446225e-38f, 4.7853754e-39f,
    -6.85433933e-40f, -2.51481647e-39f, -2.10556851e-38f, -8.00511646e-39f, 1.25300143e-38f, -6.20810112e-39f, -9.09699001e-39f, 3.73088429e-39f,
    0.00329448213f, 0.00518872216f, -0.0740821809f, 0.0730182603f, 0.0189065151f, 0.0101490803f, -0.0545428917f, -0.169503257f,
    -0.0333288126f, 1.43075936e-39f, 1.48672722e-39f, 6.77084997e-40f, 0.104769334f, 0.0170375351f, 0.109626092f, -1.71090695e-39f,
    7.03871098e-39f, -8.2249942e-39f, 0.123428591f, -0.222492561f, 0.131986499f, -3.67784795e-39f, 1.98947948e-39f, -1.84406954e-39f,
    0.0659913421f, -0.0215145629f, 0.027701484f, -0.000159754054f, -0.0265439432f, 0.134707406f, -7.58573305e-40f, -1.36403738e-38f,
    8.75828356e-40f, 0.0831748247f, 0.0101778256f, 0.0474452041f, 0.0191143639f, -0.00875976868f, -0.0278404765f, -0.13260664f,
    -0.187735215f, 0.0128781721f, 4.48251837e-39f, 6.002703e-39f, 3.36260064e-39f, 0.0248195231f, -0.0387777574f, 0.00837612152f,
    0.120863698f, -0.0768721774f, 0.241487473f, 0.148762539f, 0.0928477794f, 0.00217201887f, -0.00300254766f, 0.0506034121f,
    0.0722002834f, 0.0459877439f, -0.03536034f, 0.0250447746f, -0.0446427017f, -0.164108679f, -0.0724873468f, 0.0313447863f,
    -0.174620435f, 0.0399781428f, -0.124042861f, 0.0672324151f, -0.0543580987f, -0.166087657f, 0.0221555997f, -0.0528008565f,
    -0.0169136133f, -0.0134426253f, 0.044254791f, -0.175563678f, -0.0507612303f, -0.120786533f, 0.0533261783f, 0.00486124773f,
    -0.0934785679f, 0.152852461f, 0.0180124734f, -0.0208798144f, 0.165912583f, -0.0623150468f, -0.00692331837f, 0.278732449f,
    0.0826408044f, 0.0919270068f, -0.0853351206f, 0.0745723546f, 0.180012211f, -0.0103361765f, -0.0115151228f, -0.0613015965f,
    -0.152040377f, 0.13279295f, 0.0852341652f, -0.313085169f, 0.111135811f, 0.0782492533f, -0.23817119f, -0.0998920947f,
    -0.187903956f, 4.20049024e-39f, 5.73225519e-39f, -2.00134848e-39f, -0.222589999f, 0.0919897556f, 0.198169604f, 1.13153618e-38f,
    9.59812657e-39f, -1.02838043e-38f, 0.167131305f, 0.0149968527f, -0.194842592f, 1.98266637e-39f, -4.27032255e-39f, 3.09546551e-39f,
    0.0974002853f, -0.0076221684f, -0.12415906f, -0.112309732f, -0.149407208f, 0.345292062f, 7.11195404e-40f, 4.99100474e-40f,
    -4.32291468e-39f, -0.0588001646f, -0.0665330291f, 0.0211305059f, 0.0236160848f, 0.0497224443f, -0.184576422f, 0.198294923f,
    -0.247462243f, -0.026649531f, 6.98808486e-39f, 5.72558782e-39f, -3.41512691e-39f, -0.332753837f, -0.036837738f, -0.0327015929f,
    0.38144657f, -0.00363955623f, 0.271909893f, -0.680228949f, 0.194270551f, -0.0550723523f, 0.0128456671f, -0.00212733867f,
    0.204598621f, 0.144942299f, 0.0374156609f, 0.349668533f, -0.64248997f, 0.219021052f, -0.0594449602f, 0.108324587f,
    0.207949564f, -0.0844457075f, -0.245654345f, 0.00382461073f, -0.00348306866f, -0.062357381f, 0.368683249f, -0.208061561f,
    -0.00225400901f, -0.159178779f, 0.0123507408f, 0.23374787f, 0.0125989346f, -0.371417224f, 0.271458566f, -0.0692056268f,
    -0.105660416f, 0.2469704f, 0.116463162f, -0.101200365f, -0.0173698701f, 0.18676199f, -0.195758313f, -0.0690043867f,
    0.339910626f, 0.00828213617f, -0.246407583f, -0.342126459f, 0.226677924f, -0.14166677f, -0.0116906213f, -0.215140045f,
    -0.190701663f, -0.268829167f, -0.26676029f, 0.194949105f, 0.167461455f, 0.126191154f, 0.387837499f, 0.0163911395f,
    0.0830504224f, 1.97657072e-39f, 4.5852683e-38f, 5.38580096e-39f, -0.00661259843f, -0.0027342129f, 0.038819883f, 1.08738014e-38f,
    -9.35884645e-39f, 7.27569297e-39f, 0.147261187f, 0.271052629f, 0.327939332f, 6.22605876e-39f, 2.70237326e-39f, 2.44534429e-39f,
    0.168644264f, -0.0141914384f, -0.0921559557f, -0.451900303f, 0.0126282927f, -0.142632946f, -5.37907894e-39f, 1.53481979e-39f,
    -4.64670991e-39f, -0.0201305151f, 0.129603624f, -0.0841763988f, 0.00475626672f, -0.194156289f, 0.0927078128f, 0.0625124499f,
    -0.547434211f, 0.411072969f, 1.26021854e-39f, -1.98344829e-39f, 3.72479986e-39f, -0.307244688f, -0.0020576953f, 0.122057058f,
    -0.289296895f, 0.35954988f, 0.155825838f, 0.37296173f, -0.216757327f, 0.245683119f, -0.066996105f, 0.0114432611f,
    0.0353497341f, -0.219270363f, -0.206284896f, -0.260372132f, -0.232320502f, 0.144627213f, -0.403049946f, -0.00612854445f,
    -0.0770027712f, -0.0830356479f, -0.0261672586f, -0.257263273f, -0.136900812f, -0.302716076f, -0.340124369f, -0.339527726f,
    -0.101273626f, -0.0387690626f, -0.255129337f, -0.374035269f, 0.0550291799f, -0.110917017f, 0.103007875f, 0.318949193f,
    0.139666602f, 0.146249622f, 0.232553288f, 0.626311421f, 0.237040147f, 0.0738146231f, 0.0582846738f, -0.330453753f,
    0.11703299f, -0.426959217f, 0.206050932f, 0.164561257f, 0.105806492f, -0.0185813233f, -0.157181427f, -0.073205322f,
    0.534254432f, 0.326709032f, 0.26110673f, 0.183610931f, 0.0187904518f, 0.0675497428f, -0.275742948f, -0.0576741584f,
    -0.137377828f, 3.24760588e-39f, -2.91011856e-39f, 2.10672753e-39f, -0.217764676f, -0.140182629f, -0.102179036f, -2.5244616e-39f,
    -6.15055119e-40f, 1.04115775e-38f, 0.0510997809f, 0.243737519f, 0.329699516f, -2.47363791e-39f, -3.87145415e-39f, 3.62834988e-39f,
    0.00552611705f, -0.0730581209f, -0.103652947f, 0.100831665f, 0.0436879285f, -0.033592429f, -2.17922791e-39f, -1.7964352e-39f,
    -5.44138767e-39f, 0.159457251f, -0.059972208f, -0.265434444f, 0.136859775f, 0.0758091137f, 0.433705837f, -0.0860397369f,
    0.042197302f, 0.285262078f, 5.20404695e-39f, -4.74017792e-39f, 4.13118762e-39f, 0.243028238f, -0.564883649f, -0.110620901f,
    -0.508025348f, -0.0240559988f, 0.104924694f, 0.41260761f, 0.0330682062f, 0.338719368f, -0.0439238437f, -0.145971432f,
    -0.10024371f, -0.0953923762f, -0.0133436322f, -0.0880203918f, -0.559506834f, 0.0408474393f, -0.136187047f, 0.448093176f,
    0.271517634f, 0.106600851f, 0.336647838f, -0.197128803f, -0.229413703f, -0.287327379f, -0.3903642f, -0.013021891f,
    -0.185900033f, -0.120163053f, -0.262628108f, 0.17485632f, 0.163183168f, 0.376293272f, -0.120576084f, 0.406096548f,
    0.423326582f, -0.17334868f, -0.0881394371f, -0.0918525979f, 0.597673833f, 0.352324724f, 0.400727183f, 0.247019455f,
    -0.202868953f, -0.187294856f, -0.191977561f, -0.0871090144f, -0.326485932f, 0.246623591f, -0.21258688f, 0.156970218f,
    -0.0295762103f, 0.0299794395f, 0.075995788f, 0.0227965321f, -0.00652860012f, 0.0195282344f, 0.0512321852f, 0.0689196885f,
    -0.0407995991f, 5.78346705e-39f, 4.38644535e-39f, -2.40901143e-39f, -0.0998362675f, -0.0763647407f, -0.14176777f, 3.43528879e-39f,
    6.84768597e-39f, -1.31771381e-39f, 0.153630689f, -0.0502832308f, 0.0161064304f, 6.55432133e-40f, 6.47985633e-39f, 1.31609952e-40f,
    -0.158026457f, -0.132643312f, -0.16133514f, 0.136664018f, -0.00335080619f, 0.043935895f, 1.38394759e-39f, 1.7207777e-39f,
    2.01181618e-39f, 0.0225366373f, -0.0104702441f, 0.0707634538f, 0.00172739185f, 0.0073971143f, -0.0146514252f, 0.0642254278f,
    0.0996115208f, 0.063792102f, 5.31966528e-39f, -2.82640779e-39f, -3.25085549e-39f, 0.135165483f, 0.109736145f, 0.00234347535f,
    0.0613008402f, 0.016210841f, 0.120098084f, 0.146552444f, 0.123215124f, 0.0310737956f, -0.182706267f, -0.122396164f,
    -0.182666332f, 0.232368812f, 0.0649410337f, -0.181029543f, 0.285717309f, 0.170817256f, 0.00103627692f, 0.130272493f,
    0.0908333287f, 0.0552411079f, 0.22993578f, 0.283086538f, 0.16335395f, 0.0374493748f, 0.137969568f, 0.095716171f,
    0.0427737385f, 0.0908367634f, 0.0626290292f, 0.0430216938f, -0.0436027758f, 0.00907061994f, 0.0275652651f, -0.135324106f,
    -0.0736906305f, 0.140827388f, 0.121399119f, 0.0258713756f, 0.0300406776f, -0.0589874275f, 0.0920925885f, -0.0242702588f,
    -0.0432589501f, -0.183044061f, -0.044762101f, -0.00510094315f, -0.183012441f, 0.0116011687f, 0.0691645369f, 0.024837127f,
    -0.341176033f, -0.221861169f, -0.253567874f, -0.218643486f, 0.0654935166f, -0.0926259458f, 0.53880918f, 0.250846624f,
    -0.224113286f, 6.03094813e-38f, 5.90423655e-38f, -6.0457663e-39f, -0.141454861f, 0.306670755f, 0.0858607516f, -1.2983361e-38f,
    -9.17652911e-39f, -1.49692307e-40f, 0.678378701f, 0.00351594738f, -0.282866716f, 5.30730919e-38f, -1.47135498e-39f, -7.47294254e-40f,
    0.212977171f, 0.452757925f, 0.137275025f, 0.132737264f, 0.0958369374f, 0.251649976f, -5.81998208e-39f, 6.90714727e-39f,
    -9.50440493e-40f, -0.0519756861f, 0.0365677699f, -0.0600888319f, -0.213652194f, -0.00838741381f, -0.0476452075f, 0.326264381f,
    0.235291868f, -0.444699228f, -2.89180359e-39f, -3.26429955e-39f, -4.30413027e-39f, -0.333083689f, -0.317199737f, 0.0344940573f,
    0.508195937f, 0.303468198f, 0.108729526f, -0.159366265f, 0.0029381658f, -0.237477332f, 0.0816365704f, 0.364329129f,
    -0.0542575382f, 0.0438430198f, 0.240080655f, -0.0490791686f, -0.391882956f, 0.0200395789f, 0.517103016f, 0.337699085f,
    -0.0712065771f, -0.0572257452f, -0.233577624f, 0.0469531752f, 0.0645579025f, -0.234386265f, 0.573082089f, 0.17970629f,
    -0.207573608f, 0.207431987f, 0.0960979387f, -0.05873226f, 0.212109774f, -0.0840276778f, 0.182481661f, -0.118270084f,
    -0.0978592932f, 0.034353625f, -0.0583186112f, -0.0783696026f, -0.127054304f, -0.135251015f, -0.077411361f, -0.29945308f,
    -0.268582344f, -0.272155911f, 0.334215611f, -0.199402809f, -0.00947770104f, 0.00124815234f, -0.127800271f, -0.0191581976f,
    0.0126761422f, -0.00762795843f, -0.0671921f, 0.199280381f, 0.0255725887f, 0.00621092878f, 0.0553118959f, -0.0982377157f,
    -0.0389575362f, 5.76750346e-39f, -4.25739977e-39f, -2.05972657e-39f, 0.305013567f, -0.00216047466f, -0.0983410403f, 2.38736417e-40f,
    3.46029917e-39f, -1.19986349e-38f, 0.200031519f, -0.223852873f, -0.0547483526f, -4.37694735e-39f, -2.58969765e-39f, -2.95059226e-39f,
    0.103341587f, 0.0234198403f, -0.0972141698f, 0.112475418f, -0.195683703f, -0.094718501f, -6.24744117e-39f, -2.79504533e-39f,
    -2.51021741e-39f, 0.160274491f, -0.0323314257f, -0.00112635456f, 0.0074545322f, -0.00394648639f, -0.0598360859f, 0.041992493f,
    -0.0988016054f, -0.0172613934f, -2.58704359e-39f, -3.79223314e-39f, -3.29954221e-39f, 0.0401375927f, 0.0230699908f, 0.0718295127f,
    -0.234734163f, -0.0745253861f, -0.148170575f, 0.0939971432f, -0.109116897f, 0.109209888f, 0.1486222f, -0.0582390018f,
    -0.0422095731f, -0.0560666323f, -0.285973758f, -0.140412152f, 0.0554697402f, 0.0630366355f, 0.0673908144f, 0.107083522f,
    -0.044186376f, 0.0262856334f, -0.0620254874f, -0.177912027f, 0.124387465f, -0.158129811f, 0.0153837437f, -0.134802312f,
    -0.0359587148f, 0.00541829783f, -0.00718661584f, -0.459172279f, -0.0411125906f, -0.0867056996f, -0.016924791f, 0.055693496f,
    -0.038680099f, 0.19484818f, 0.162744761f, 0.217556849f, 0.303141773f, -0.0129648149f, -0.0286050122f, 0.0600849278f,
    0.0668248311f, -0.0536809489f, 0.0990784615f, 0.110644668f, -0.108720571f, -0.0375048108f, -0.0663894862f, 0.0035780028f,
    -0.141332224f, -0.151870593f, 1.28025476e-05f, -0.118207507f, 0.0213906541f, 0.0896018445f, -0.0446980298f, -0.0146975676f,
    -0.216984928f, 9.69861088e-40f, 5.65254654e-39f, 3.50901671e-39f, -0.197259933f, -0.0710662082f, 0.0625728518f, -3.28867934e-40f,
    2.90268888e-39f, 8.3403603e-40f, -0.221764028f, -0.122634478f, 0.016323993f, -5.23742308e-39f, 5.86787286e-39f, 5.25419662e-40f,
    -0.154132932f, -0.0465765297f, -0.207773104f, -0.0770160705f, 0.100393139f, 0.0641605034f, 3.53251368e-39f, -9.09187667e-40f,
    2.02134781e-39f, -0.0152117675f, 0.0739951879f, 0.0884198993f, -0.0318304561f, -0.00880644843f, 0.0216063932f, -0.182109728f,
    -0.0707369298f, -0.0321476422f, -4.83660407e-39f, -5.19095882e-39f, -4.92792389e-39f, -0.0530685857f, 0.0323256887f, -0.0674743205f,
    -0.036977727f, -0.0327710882f, -0.185775056f, -0.0461624265f, 0.0530363731f, 0.16482982f, -0.111767873f, -0.0225236584f,
    -0.0553592965f, 0.000506721262f, -0.104481742f, 0.08956936f, -0.292277634f, -0.41015321f, -0.178569928f, -0.0434241369f,
    -0.0185718965f, 0.118336104f, 0.102987044f, 0.175738886f, 0.228290811f, 0.153550401f, -0.00787493028f, 0.169123009f,
    0.00842029694f, 0.0535637289f, -0.0348043852f, 0.137071759f, -0.152034432f, -0.056147404f, -0.0265551656f, -0.194459662f,
    -0.0690701976f, -0.199594215f, 0.0726702437f, 0.145427361f, -0.306914032f, -0.0467107035f, 0.189075276f, -0.0968537927f,
    0.0275321919f, -0.0540737174f, 0.100139409f, -0.0770514905f, -0.0968329683f, -0.00267780456f, 0.0299583301f, -0.0240737181f,
    -0.211831853f, -0.194995105f, -0.156145677f, 0.105603456f, 0.0657046363f, 0.091683656f, -0.0153882364f, 0.0196313877f,
    -0.0249999315f, -6.5292493e-39f, 6.74705032e-39f, 4.15116173e-39f, 0.191225514f, 0.0962986723f, -0.0768417865f, 1.62057365e-39f,
    -2.39283484e-39f, 2.35615445e-39f, 0.0496681184f, 0.0790476128f, 0.136990577f, -4.00126764e-40f, -6.42800268e-39f, -4.01225101e-39f,
    0.143984586f, 0.0813433751f, 0.00977200363f, 0.138098404f, 0.0637748614f, 0.00172493688f, -1.21507991e-39f, 1.24832151e-39f,
    1.41211649e-39f, 0.069297865f, 0.0866840556f, 0.153408512f, 0.0137131093f, -0.00480232481f, 0.0329658613f, 0.0651906729f,
    0.0865355432f, 0.129903749f, -1.00552694e-39f, 5.93836658e-40f, 4.74146712e-39f, 0.0350945853f, 0.11779058f, 0.121409215f,
    -0.110794112f, -0.0588548146f, -0.10316471f, 0.00680980645f, -0.133507088f, -0.0996020585f, 0.36308375f, 0.130651563f,
    -0.10154999f, 0.104636893f, 0.0383490138f, -0.134481251f, 0.0877690762f, 0.083107844f, 0.127077803f, -0.0404906347f,
    0.0147541929f, -0.0743021071f, 0.040175803f, -0.0409157053f, -0.126792565f, 0.173385084f, 0.0213011876f, 0.00804120023f,
    -0.0343106426f, -0.0514450744f, -0.0443722121f, -0.189552203f, -0.192459956f, -0.167636767f, -0.0846007317f, -0.0983796418f,
    -0.0217136983f, -0.160816014f, 0.101299286f, 0.1434187f, -0.0191934034f, 0.0382395089f, 0.147255406f, -0.124173574f,
    0.052901905f, -0.013463431f, 0.161732242f, 0.178147614f, 0.13294068f, 0.0169252492f, 0.0395126678f, -0.0562941134f,
    0.130758807f, 0.0602743812f, 0.145187214f, 0.128219455f, -0.0557265356f, 0.104969062f, -0.0292671937f, -0.0472144596f,
    -0.168182552f, -3.48400914e-39f, -6.32990338e-39f, -1.35813847e-41f, -0.0529080182f, 0.00182988693f, -0.116611302f, -8.17514161e-39f,
    2.44560213e-40f, -1.19142151e-38f, -0.322625369f, 0.0456229076f, -0.277385443f, -5.94296564e-39f, -6.63213824e-39f, -3.08392021e-39f,
    -0.0148691162f, 0.238085121f, 0.088328518f, -0.00249155355f, -0.0320284404f, -0.0459460504f, -4.09205496e-38f, -2.97585347e-39f,
    -3.2249651e-39f, -0.0957206637f, -0.0770257041f, -0.250691593f, 0.0330278464f, 0.0724891126f, -0.0625542998f, 0.0394034386f,
    0.338450938f, -0.0678796023f, 2.974483e-39f, 1.68619085e-39f, -7.6911107e-39f, -0.270587772f, -0.19164969f, -0.141666964f,
    -0.452072322f, -0.265280038f, -0.445491999f, -0.073160097f, 0.0508529618f, 0.218829826f, 0.0795856938f, 0.175133646f,
    -0.2684021f, 0.130007342f, -0.126546919f, -0.168876931f, -0.101331986f, -0.0970748812f, 0.0451863296f, 0.00520514138f,
    0.172146261f, 0.0540702492f, -0.0375502072f, -0.168394998f, 0.140601814f, -0.138876021f, -0.0858007297f, 0.0429805703f,
    -0.0479327254f, -0.0655787885f, 0.00701911328f, -0.147606775f, 0.125952542f, 0.121418722f, 0.00546183484f, 0.184197575f,
    0.147292987f, -0.0583193898f, 0.0206585359f, 0.155709594f, 0.111300178f, 0.0370778888f, 0.115396254f, -0.189446464f,
    -0.364617616f, -0.144396663f, -0.0816462561f, 0.0843394026f, -0.0688636303f, -0.0437098481f, -0.0272809435f, 0.133518696f,
    -0.154722527f, -0.0925577134f, 0.0836440399f, -0.163593352f, -0.0499854572f, 0.0199927241f, 0.0540290847f, 0.047356531f,
    -0.0879289955f, 4.22038027e-39f, 6.03827636e-39f, 3.06641098e-39f, -0.322578281f, -0.00417167973f, -0.0223897845f, -2.21873191e-39f,
    -2.44593844e-39f, 1.02355212e-38f, -0.280555427f, -0.0112155769f, -0.0941493139f, 3.59843076e-39f, 4.30689363e-39f, 4.14416925e-39f,
    0.0579032451f, 0.222368598f, -0.0773132741f, -0.152170226f, 0.188213065f, -0.218100652f, -6.12737652e-39f, -6.49252407e-39f,
    -5.2874612e-38f, -0.0274774637f, 0.0895911902f, 0.117526084f, -0.0724979267f, -0.0131587023f, 0.0642613843f, -0.0169885401f,
    0.042533733f, -0.00391821424f, -5.19085793e-40f, 4.71603075e-39f, 7.72178232e-39f, -0.0988795906f, 0.0350665599f, 0.0213181041f,
    0.0295333955f, 0.160746187f, -0.21443662f, -0.336812705f, 0.0695835948f, -0.0561988987f, -0.340993822f, 0.080720827f,
    -0.0917548463f, 0.0654858276f, 0.00881349947f, -0.0202060826f, -0.123739503f, -0.0345047005f, 0.180758104f, -0.063766405f,
    0.0582843386f, 0.0297243223f, 0.0269524418f, 0.178726867f, 0.141619399f, 0.0460945107f, 0.125265658f, 0.133358076f,
    0.0408901311f, 0.138216868f, -0.0314295292f, 0.220022857f, 0.0686808676f, -0.0234177299f, -0.0134384735f, -0.0294175874f,
    0.0454085395f, -0.329762131f, -0.0339865871f, 0.0591884032f, -0.257927209f, -0.00544619095f, 0.105000861f, -0.227556765f,
    0.0662435219f, -0.250390708f, 0.0307630487f, 0.0681713298f, -0.0242403373f, 0.000333929318f, 0.0779352561f, 0.0969765261f,
    0.0221674871f, -0.151520014f, -0.0129526062f, -0.0184555613f, 0.0289302245f, 0.0677954331f, 0.185234144f, -0.180056974f,
    -0.144869074f, -1.61903782e-39f, -3.20742084e-39f, 4.53766787e-39f, 0.0323807001f, 0.0801438466f, 0.0446492657f, -2.92153914e-40f,
    3.30006909e-39f, 3.46570818e-39f, -0.000578364241f, -0.124997355f, 0.0546640716f, 2.03560462e-39f, 1.63495658e-39f, 2.50350939e-39f,
    -0.0169426687f, 0.0800919905f, -0.237985924f, 0.0816469714f, -0.00335843768f, 0.106075346f, -2.68963265e-39f, -4.78434685e-39f,
    -6.55185785e-39f, 0.00308233104f, 0.0277887937f, 0.0821613893f, 0.00354103278f, 0.0393106304f, -0.0569920987f, 0.0328583121f,
    0.0943473279f, -0.0602948032f, 7.8011911e-39f, 4.94787277e-39f, -6.55451751e-39f, -0.0184542611f, 0.0194175579f, 0.0361150354f,
    -0.00934625417f, 0.0134516209f, -0.278976172f, 0.0395149179f, 0.00207309774f, 0.231934607f, 0.0292989817f, 0.0435286015f,
    -0.158951357f, 0.13153179f, 0.110078722f, 0.26760602f, -0.0206751451f, 0.00250406633f, 0.340433776f, -0.0904229209f,
    0.0401733853f, 0.0922401324f, 0.0339040309f, -0.0946819261f, 0.0135919256f, 0.121773846f, 0.113217086f, 0.0469125919f,
    0.0510610193f, -0.104578592f, -0.134568647f, 0.0759899393f, -0.144465297f, -0.22702387f, -0.0824614614f, -0.0622515045f,
    -0.0245001242f, -0.00883790664f, -0.0380919836f, 0.213306651f, -0.120498158f, 0.0446118377f, 0.0857897401f, -0.392407328f,
    0.16915758f, -0.135050312f, -0.0123193804f, 0.043488089f, 0.142896324f, -0.0714389831f, 0.0130131021f, 0.0432350822f,
    -0.0241538379f, -0.0923493356f, -0.0398382023f, -0.106530376f, 0.0138394907f, -0.0135320826f, 0.0828656107f, 0.0711626485f,
    -0.0548906066f, 1.7500738e-38f, 6.53200706e-39f, 2.62031042e-38f, -0.13321805f, 0.153178394f, -0.0235371813f, 2.07392173e-40f,
    -4.21622682e-41f, 8.00628514e-39f, -0.0430048369f, 0.156149194f, -0.0851760432f, 7.94345653e-40f, 1.33447615e-39f, 4.94367448e-39f,
    0.119210027f, 0.24365361f, -0.0186557956f, -0.0747951269f, 0.115875207f, -0.177936718f, -4.75167137e-39f, -3.44509227e-39f,
    -4.18204859e-38f, -0.0427352712f, 0.081452921f, 0.0751599669f, -0.035642907f, -0.0201956537f, 0.0341151394f, 0.0633346438f,
    0.0362779424f, 0.085730195f, 6.48763634e-39f, 3.1985254e-39f, 1.77712671e-39f, 0.0231214445f, 0.00826527458f, 0.060564667f,
    -0.0873868316f, -0.0766092539f, -0.179694459f, -0.339923054f, 0.00875431951f, -0.0591729134f, -0.115592949f, 0.0675459877f,
    -0.0875713751f, -0.0115232402f, 0.00152095966f, -0.0205874741f, -0.0479464605f, -0.0037425058f, 0.0678262711f, -0.0342995599f,
    0.0896816328f, 0.00484149065f, 0.0393437743f, 0.101973668f, 0.0645899922f, 0.0599491894f, 0.0551769398f, 0.0392420702f,
    0.0500396788f, 0.0697851628f, -0.0569820255f, 0.258447289f, 0.0137292659f, -0.0204429552f, 0.0487339124f, -0.0248630308f,
    -0.0198409017f, -0.162887946f, 0.067002736f, -0.0470448844f, -0.199985281f, 0.159860775f, 0.0974504352f, -0.352085471f,
    0.0497394428f, -0.179512069f, 0.0817014575f, 0.104345031f, -0.00516740559f, -0.0508081354f, 0.0723742545f, 0.0567625612f,
    -0.0113562625f, -0.156282485f, 0.0146011477f, -0.0420638919f, 0.00607241178f, 0.0571425445f, 0.142645389f, -0.0451634824f,
    -0.106986932f, 3.19170388e-39f, -4.64641984e-39f, -1.32246702e-39f, 0.0169004705f, 0.0665678084f, -0.00844029989f, -3.7500989e-40f,
    1.41540113e-39f, 4.65558433e-39f, 0.0262845997f, 0.0206522681f, -0.0807183608f, 3.08906157e-39f, 2.73863606e-39f, -4.41498139e-39f,
    -0.00474660611f, 0.0382919759f, -0.177425474f, 0.0460645109f, 0.085271664f, -0.0174089745f, -4.2826792e-39f, -3.80490648e-39f,
    -4.00203274e-39f, -0.0284637362f, 0.0355439223f, 0.0536830835f, -0.013391193f, 0.0210376121f, -0.00224608812f, -0.0164622776f,
    0.0448707007f, -0.0250255875f, 4.41392201e-39f, 3.97634134e-39f, -5.98399286e-39f, 0.0453759395f, 0.00751277851f, -0.00925305486f,
    0.0362657309f, 0.0155934365f, -0.183541238f, -0.027575491f, -0.0189491957f, 0.168837875f, -0.016723793f, 0.0423977338f,
    -0.188663557f, 0.100507393f, 0.0796590224f, 0.143911704f, 0.0433019251f, -0.085413672f, 0.106398262f, -0.0410528146f,
    0.0416774936f, -0.00971298292f, 0.0509485975f, -0.0719589144f, -0.0222233459f, 0.0849562064f, 0.0600325353f, 0.0642754063f,
    0.0597984567f, -0.0349451341f, -0.0902441144f, 0.065370962f, -0.118000291f, -0.126928434f, -0.058113534f, -0.0659041181f,
    0.021017747f, -0.0166504979f, -0.0361717232f, 0.175121292f, -0.12444447f, 0.0839752778f, 0.104397215f, -0.344493002f,
    0.071889855f, -0.116973378f, 0.000913115102f, 0.0537359901f, 0.139624119f, -0.0661250204f, 0.0162935387f, 0.0737571716f,
    -0.0492774099f, -0.142564446f, -0.00921156816f, 0.0210982095f, 0.0706805885f, 0.20681338f, -0.271310955f, 0.209851086f,
    -0.0342026725f, 4.25471769e-39f, 2.77769445e-39f, 5.31870119e-39f, 0.0164905079f, -0.0414317213f, -0.204090595f, 1.08452037e-38f,
    1.10195169e-38f, 9.74809353e-39f, -0.0774703622f, -0.2338956f, -0.435847074f, 4.60366763e-39f, 6.11529873e-39f, 4.70546916e-39f,
    -0.361091137f, -0.394769639f, -0.185659856f, 0.165161118f, 0.1864658f, -0.0132659879f, -1.98537508e-39f, -4.01077124e-39f,
    -2.67723116e-39f, -0.037312448f, 0.0954648182f, 0.0853166506f, -0.00617662771f, 0.0989125818f, 0.247836143f, 0.210267544f,
    0.363211215f, 0.0132056633f, 5.67026736e-39f, 2.96856392e-39f, 2.61650449e-39f, -0.0219230726f, 0.162728876f, 0.0922005698f,
    0.501983762f, 0.428643614f, 0.261890769f, -0.373015732f, 0.239702046f, 0.00862572622f, -0.26820299f, 0.267328888f,
    0.026452126f, -0.0865094513f, -0.312462747f, -0.289625406f, 0.504842758f, 0.21754688f, 0.620523751f, 0.0103752678f,
    0.00715386681f, -0.0132064503f, -0.247912273f, -0.169437841f, 0.0297322329f, 0.0710435808f, 0.327798456f, 0.0679355264f,
    0.0586238205f, 0.00950139016f, 0.0898205191f, -0.169817805f, -0.339826256f, -0.343452275f, 0.0869632661f, -0.247789815f,
    0.0044740513f, 0.32084614f, 0.180793762f, 0.169164166f, 0.141091555f, 0.158137575f, 0.174146086f, 0.0313364305f,
    0.0794167146f, -0.0324768014f, -0.686522782f, -0.37572822f, -0.110025801f, -0.262561411f, -0.125608668f, 0.0729230344f,
    -0.130150884f, -0.117994204f, -0.161283493f, -0.0748448074f, 0.0326871201f, 0.00860791467f, 0.14515987f, 0.10749983f,
    -0.189080149f, 3.69457385e-39f, 5.51574337e-39f, 5.61557356e-38f, -0.171360031f, 0.224935234f, 0.0100719333f, 1.96442987e-39f,
    -7.43430314e-39f, -3.66174983e-39f, -0.266428232f, -0.13694331f, 0.269261837f, -5.17577996e-40f, 1.97939434e-39f, 2.28934895e-39f,
    0.110963434f, 0.212181866f, -0.0145003404f, -0.171429455f, 0.113356628f, 0.185763374f, -6.32494055e-38f, -5.47341575e-38f,
    8.02592911e-38f, -0.0643925816f, 0.192585945f, 0.173897222f, -0.0600583851f, -0.0486466289f, 0.0743688866f, -0.161243737f,
    0.0157481562f, 0.101728871f, 1.66300497e-39f, -4.1332139e-39f, 3.9226604e-39f, 0.00339098438f, 0.153371006f, 0.0618264563f,
    -0.325922519f, 0.0118000768f, 0.115911961f, -0.248869032f, 0.122245505f, 0.231246695f, -0.166076332f, 0.146484673f,
    -0.194160968f, -0.0725761503f, 0.20586592f, 0.153764293f, 0.222008571f, -0.224395722f, 0.0742186904f, 0.00522583025f,
    0.0372184031f, 0.193907082f, -0.0137063535f, 0.0646633878f, 0.0876223892f, -0.157131806f, 0.111915246f, 0.138400078f,
    -0.106445089f, 0.0906879008f, -0.0736909509f, -0.127145424f, 0.100817099f, 0.276937366f, 0.138976038f, -0.0809892416f,
    0.0188000072f, -0.18791768f, -0.0460100546f, 0.0481828637f, -0.224046767f, 0.0122896899f, 0.186902329f, -0.0639276057f,
    0.159637019f, -0.341602385f, 0.183465347f, 0.0165384449f, -0.154524297f, 0.101936601f, 0.0192164425f, 0.0785778686f,
    -0.0438242219f, -0.0804840624f, -0.0962353423f, -0.0861953944f, 0.0451733246f, 0.0513839088f, 0.057366021f, 0.0269997809f,
    -0.0696162805f, -7.04213575e-39f, -6.28588299e-39f, 1.82173285e-39f, -0.223335087f, 0.193667352f, 0.140444919f, 1.04986402e-39f,
    4.33695148e-39f, 1.54753797e-39f, -0.111742139f, -0.0788446888f, 0.117720701f, 9.30406128e-40f, 1.08299632e-39f, 1.87285782e-39f,
    0.119621329f, 0.0993972272f, -0.16056788f, -0.0570050068f, 0.0473932587f, 0.209318846f, 3.35164809e-39f, 3.58658979e-39f,
    4.49987765e-40f, -0.0467852205f, 0.0645588711f, 0.158154488f, -0.0112557523f, -0.0108016944f, 0.0126099363f, -0.0844760314f,
    0.0850014687f, 0.0597104616f, 6.51380139e-39f, -1.50870519e-39f, 2.53915282e-41f, 0.0230251178f, -0.0790485144f, 0.0583457053f,
    0.0302843284f, -0.0570183545f, 0.00152340578f, -0.275172919f, 0.0935181901f, 0.159355298f, -0.149476722f, 0.111098632f,
    0.0279710535f, 0.0141565865f, -0.0661876053f, 0.171720877f, -0.180649295f, -0.108373649f, 0.222017065f, -0.0232911706f,
    0.0312354304f, 0.0844695866f, 0.00636919076f, 0.0555608235f, 0.13663733f, -0.00292385719f, 0.213285565f, -0.0143009806f,
    0.0290517695f, 0.0271865446f, -0.0763878301f, 0.150136471f, -0.121576034f, -0.112658538f, 0.0761293322f, -0.138789818f,
    -0.112243675f, -0.151776031f, 0.0168874487f, 0.151755378f, -0.139849618f, 0.0304825697f, 0.192859709f, -0.06100614f,
    -0.00200967048f, -0.223399982f, 0.0327376723f, 0.208149105f, 0.0394260995f, -0.00782263279f, 0.0244101845f, -0.0630051196f,
    0.000592693978f, -0.113586329f, -0.312393427f, 0.142512858f, 0.0858450606f, 0.028472688f, 0.361631155f, 0.0385340489f,
    0.118207529f, 2.12203783e-38f, -4.97649289e-39f, -2.62296448e-39f, 0.116447896f, -0.0115959318f, -0.178751633f, -8.07317192e-39f,
    6.04020454e-39f, -1.23502599e-39f, 0.0292021483f, 0.0297978967f, 0.471812755f, 2.21659633e-39f, 9.27880989e-40f, 1.59957099e-39f,
    0.335839182f, -0.0201928802f, -0.175703272f, 0.0664582774f, -0.130416378f, 0.130227774f, 1.67527333e-39f, 3.31169146e-39f,
    -1.73515922e-39f, 0.378296912f, -0.140838623f, 0.0509950817f, 0.098337397f, 0.0328809619f, -0.033906579f, -0.280546308f,
    -0.278111786f, 0.435448527f, 2.43950088e-39f, -2.36507792e-39f, 6.94707727e-41f, 0.130503848f, -0.147921324f, 0.209282845f,
    -0.310874671f, -0.10416469f, 0.257766724f, 0.310101837f, -0.204363853f, 0.395728827f, 0.184562102f, 0.0752714947f,
    -0.101587109f, -0.266780198f, -0.206561133f, -0.208570778f, -0.311518997f, -0.0276041124f, 0.101591296f, 0.19698219f,
    -0.203321397f, -0.0124206347f, -0.127876222f, -0.232851535f, -0.106702559f, -0.293650806f, 0.071480833f, -0.206623465f,
    0.0890589058f, -0.226247728f, -0.0825255588f, -0.423150688f, 0.225689545f, 0.00664778799f, 0.119805098f, 0.290762872f,
    -0.256186724f, 0.128832027f, 0.0327138305f, 0.379079998f, 0.37718448f, 0.0321666822f, -0.0394999236f, -0.175476849f,
    -0.249979258f, -0.212571502f, 0.283782572f, 0.0668542534f, 0.0303382035f, -0.178499833f, 0.128448591f, -0.208338276f,
    0.0427175313f, 0.101309411f, 0.0322845653f, 0.0138307251f, 0.00986298453f, 0.0293522775f, 0.115726776f, 0.116007999f,
    0.101340421f, -5.27976191e-39f, 1.58866888e-39f, -1.97231077e-39f, 0.00796364155f, 0.0506942682f, -0.0126400311f, 3.42365241e-40f,
    4.6291054e-40f, -6.19228186e-39f, 0.134045035f, 0.202418938f, 0.21598044f, -8.70649157e-40f, -4.59698203e-39f, -2.18658612e-39f,
    0.0778870732f, 0.0759725124f, 0.00414019823f, 0.043347273f, 0.0976855606f, -0.0134784551f, -6.62609584e-40f, 2.34258315e-38f,
    4.96414465e-39f, -0.0444963723f, -0.0162649248f, 0.024416592f, 0.0148226013f, 0.0189378858f, -0.00269170199f, 0.107725501f,
    0.0955806822f, 0.0816171542f, 5.38499382e-39f, -2.58144961e-39f, -2.63504647e-39f, -0.122567557f, 0.0107795233f, -0.0464067869f,
    -0.0129306642f, -0.307600498f, -0.296808511f, -0.0918549448f, -0.0202666558f, -0.0688710734f, 0.00598271703f, -0.0124689704f,
    0.000374254625f, 0.0179040562f, 0.0225192681f, 0.0834472328f, -0.0742031336f, -0.0584968813f, -0.146160975f, 0.00577655388f,
    0.0116965463f, 0.0614894405f, -0.0147714922f, 0.226959273f, 0.203501642f, 0.103021882f, -0.00491303951f, -0.0890087932f,
    -0.00574359857f, 0.0462685637f, 0.0294744037f, -0.0510696545f, -0.112330064f, -0.0493224077f, 0.0168286115f, -0.0575569347f,
    -0.0789673105f, -0.0966156498f, -0.0696503893f, -0.108601049f, -0.0157141015f, -0.0210009236f, 0.0414181799f, 0.0605537966f,
    0.0611360744f, 0.0152790695f, 0.103779607f, 0.0033687111f, -0.0394102335f, 0.000631389499f, 0.0514076315f, 0.00772133516f,
    0.0583480746f, -0.0617052056f, 0.00584169291f, 0.0307331029f, 0.00395682454f, -0.0210603252f, 0.100087367f, 0.0741592124f,
    0.140598431f, -2.01985403e-39f, -1.89819329e-39f, 3.15522808e-39f, 0.0375501104f, 0.129043505f, 0.192820892f, -2.33099273e-39f,
    -1.63301718e-40f, 6.08101316e-39f, -0.0409473144f, 0.0254332256f, -0.0659888908f, -8.66966544e-40f, -4.15131027e-39f, -2.6387403e-39f,
    0.0518144555f, 0.0663062856f, 0.106964208f, -0.024034163f, 0.0807881877f, 0.0307422671f, -5.97761975e-39f, -5.08607443e-39f,
    -5.35396346e-39f, -0.0125112878f, 0.0503700115f, 0.0691348761f, -0.0178779811f, -0.0263727251f, 0.0278515872f, -0.0112001412f,
    0.0482552834f, -0.0596060902f, -5.28192551e-39f, -4.43852881e-39f, 7.18135475e-39f, 0.0421259888f, -0.00318067754f, 0.0545717105f,
    0.12372309f, 0.251410812f, 0.13899985f, 0.23705183f, 0.126703009f, -0.10989172f, 0.0292174686f, 0.101257704f,
    0.194387421f, 0.062547788f, 0.0245134495f, 0.211793363f, -0.0347843654f, 0.0568705015f, 0.164835691f, -0.0173137002f,
    -0.0159419607f, -0.0463095941f, 0.0894813836f, 0.0375902243f, 0.0648014843f, -0.0386784673f, -0.0476029254f, 0.0254239235f,
    0.0196174476f, 0.0420307107f, 0.0309094954f, -0.0572446808f, 0.0527302697f, 0.107195824f, 0.054355938f, -0.0191907454f,
    0.074264124f, 0.0198260322f, -0.0646459982f, -0.160469085f, -0.0392937027f, -0.0342953242f, -0.0213024151f, 0.228976682f,
    0.00739218388f, 0.0359292552f, -0.0251503643f, 0.104569368f, 0.0795472339f, 0.0320690721f, -0.0193600301f, -0.0118315518f,
    0.0573380105f, 0.220625013f, 0.0707474127f, 0.0110840499f, 0.0605030395f, -0.128413573f, -0.229117289f, -0.131874576f,
    0.208697215f, -3.41068984e-38f, -2.99442796e-38f, -3.28706617e-38f, -0.375731736f, 0.232954562f, -0.144054189f, 1.07026861e-38f,
    2.25551319e-39f, -1.08526026e-38f, 0.000423349993f, 0.200413391f, 0.259099871f, -1.22734127e-40f, -9.13366339e-42f, 3.98853263e-39f,
    -0.299634725f, -0.102791578f, 0.0234441552f, -0.136530533f, 0.313431233f, 0.168507993f, 2.19833741e-39f, 6.79918927e-38f,
    -4.10747765e-39f, 0.205925956f, -0.109232932f, -0.290170699f, -0.0509910695f, -0.0707348734f, -0.00489176298f, 0.0982519537f,
    0.187606946f, 0.0378884934f, 4.271679e-39f, -7.25296951e-39f, 3.33912608e-39f, -0.107858106f, 0.0423452929f, -0.00450339494f,
    0.260127395f, 0.191288456f, -0.563600898f, -0.293840677f, 0.0875038654f, -0.0159244835f, 0.239617079f, 0.326812357f,
    0.250510842f, 0.42302236f, 0.1071878f, 0.214813396f, 0.504328072f, 0.417006344f, -0.0313974507f, 0.584219575f,
    0.244006187f, 0.39586705f, -0.486928165f, -0.372696459f, 0.236981198f, 0.0463396162f, -0.205715463f, -0.354909033f,
    -0.157570913f, 0.0218922943f, 0.020783633f, 0.329317689f, 0.303846091f, 0.101515569f, 0.214874834f, 0.0600918382f,
    -0.227241904f, -0.256868571f, -0.0919237658f, -0.407146186f, 0.284720987f, 0.0211254004f, 0.130379543f, 0.0460023694f,
    0.107815206f, -0.0353593826f, 0.0695788637f, -0.436529547f, -0.388449103f, -0.0376613848f, -0.384703308f, 0.378504515f,
    0.254640907f, -0.251583636f, 0.166433588f, 0.165167347f, 0.180691034f, 0.0806189924f, -0.0843125582f, -0.127499118f,
    -0.111593373f, -1.08407952e-39f, 5.72628566e-39f, 5.95194796e-39f, 0.161450788f, 0.0518969633f, 0.0962131098f, -5.43338346e-39f,
    -7.46964949e-39f, 5.34593402e-39f, -0.0921943262f, 0.186324209f, 0.221915603f, 5.11352727e-39f, 6.81701014e-39f, 4.44231371e-39f,
    0.152368873f, -0.17965591f, -0.0184150934f, 0.0452097058f, -0.15024288f, -0.0382198878f, 5.06416233e-39f, -1.99853187e-40f,
    1.56888115e-39f, 0.0919477865f, 0.348063737f, 0.216497794f, -0.0550018959f, -0.187014148f, 0.31983611f, 0.0101928143f,
    0.0981655866f, 0.233966604f, -2.90754578e-39f, -2.24424115e-39f, 2.74095941e-39f, -0.12018314f, -0.237814739f, -0.175313056f,
    -0.520436227f, 0.468875289f, 0.242104247f, 0.226934195f, -0.492996901f, -0.159196526f, -0.0588088334f, -0.165252939f,
    0.00827448815f, -0.0953626931f, -0.0263732411f, -0.343301505f, -0.194109723f, -0.000754109409f, -0.215362877f, -0.0824796259f,
    -0.0272664838f, -0.109955013f, 0.470644176f, -0.375620842f, -0.442900389f, 0.16428481f, -0.105915844f, 0.186724618f,
    0.245676056f, -0.0745066926f, -0.144899815f, 0.00151943672f, 0.201547429f, 0.305121124f, -0.331246972f, 0.245036513f,
    0.444848835f, -0.134470508f, 0.306028098f, 0.300112069f, 0.122396037f, 0.405318856f, 0.422822505f, -0.0270709116f,
    -0.000495023909f, 0.0972269922f, -0.475988835f, 0.0643803626f, -0.00878199283f, 0.0337680019f, -0.407705724f, -0.292833477f,
    -0.312882125f, -0.18093656f, 0.113813818f, -0.140445426f, -0.0502121374f, 0.0725581199f, 0.0337029621f, 0.143885866f,
    -0.14153257f, 9.22558857e-41f, 6.76544096e-40f, 9.96463338e-41f, -0.321762055f, 0.208845094f, 0.113978714f, -8.07706753e-39f,
    -8.50950263e-39f, 8.6139274e-39f, -0.222300231f, -0.0179946329f, 0.0936480165f, 4.21140635e-39f, 3.00528354e-39f, -2.74869038e-39f,
    -0.239976838f, 0.136992753f, 0.202840358f, -0.139700413f, 0.369022518f, -0.156316668f, -3.90247049e-39f, 5.8543237e-39f,
    -6.05110272e-38f, 0.0222844221f, 0.14208211f, 0.0272146985f, -0.0609814152f, 0.0112320725f, 0.0901700482f, 0.0932397395f,
    0.118306361f, 0.212743834f, -3.69486532e-39f, 7.19577972e-39f, 3.29893965e-39f, -0.410143137f, 0.0284539163f, -0.301093221f,
    0.0949419886f, 0.380026281f, -0.0097303642f, -0.235098988f, 0.174848482f, 0.0547289848f, -0.345185012f, 0.237601086f,
    0.269303769f, -0.000693606271f, -0.0598958805f, -0.0664068833f, 0.183159709f, 0.0759372115f, 0.513526499f, -0.0852267593f,
    -0.111682191f, -0.0330195092f, -0.164324582f, -0.146953866f, 0.165933698f, -0.24508895f, -0.239911154f, 0.171528131f,
    -0.106046245f, 0.135556132f, 0.0465275273f, -0.201881379f, -0.0668520257f, -0.0102717979f, 0.00619343016f, -0.208762273f,
    0.0592192151f, -0.259987801f, 0.0200063903f, -0.24571085f, -0.281946361f, -0.00889517739f, -0.142657548f, -0.0372674204f,
    0.0231548753f, 0.1248013f, 0.0643494204f, 0.120998822f, 0.294101596f, -0.208843395f, -0.0971752778f, -0.133363739f,
    -0.19989036f, -0.255744904f, -0.0347401202f, -0.250011712f, 0.0533138998f, -0.0549916849f, 0.219147429f, -0.412952274f,
    -0.207762375f, 6.68377329e-40f, -1.44740118e-39f, -2.00135969e-39f, 0.301100105f, -0.19881089f, 0.286727816f, 7.40964589e-39f,
    4.14572469e-39f, -4.45270995e-40f, 0.442262113f, -0.138612941f, 0.23014234f, 3.77151634e-39f, 2.0271604e-39f, 3.42289851e-39f,
    0.0320104063f, -0.543687046f, -0.353500962f, 0.231315404f, -0.0886127278f, 0.338053823f, 2.98943766e-39f, 2.0018025e-39f,
    -3.02046661e-39f, 0.0344878361f, -0.0781731158f, -0.0446396545f, -0.0930744335f, 0.0897360891f, -0.165749043f, 0.0938724428f,
    -0.169164866f, -0.238973513f, -4.16255709e-39f, 4.31806759e-39f, -2.47670535e-39f, -0.185824528f, -0.0015835762f, 0.0502114929f,
    0.0551404506f, 0.254959762f, 0.00976600498f, -0.0408397019f, 0.130065486f, 0.0654849708f, 0.221349388f, 0.116446197f,
    0.522174001f, 0.108778931f, 0.1456763f, 0.181086123f, -0.0113017568f, -0.0203230586f, -0.127176121f, 0.0427657217f,
    0.400273174f, 0.325563729f, 0.31050238f, -0.00773356855f, 0.0415434614f, 0.0485844985f, 0.00513259228f, -0.125805914f,
    0.107980981f, -0.0175101049f, -0.103544183f, 0.0455404967f, -0.248362273f, 0.000673133298f, 0.0308988765f, -0.518847048f,
    0.0424780101f, 0.1845451f, -0.154006243f, -0.0314765945f, -0.321563482f, 0.153005823f, 0.10370481f, -0.252826959f,
    0.358849764f, -0.105332546f, -0.123206012f, -0.445265293f, -0.222877249f, -0.0786581561f, 0.0123623433f, 0.0539867692f,
    -0.0558123738f, 0.0120586231f, 0.207545772f, -0.195073247f, -0.105568536f, -0.0882553756f, 0.284478277f, 0.154185787f,
    -0.115371659f, -4.54945139e-39f, -4.13003155e-39f, -1.81575911e-39f, -0.152870342f, 0.000439329509f, 0.1940258f, -8.80903579e-39f,
    -5.38029666e-39f, -8.39240173e-39f, 0.0362690389f, 0.326008856f, 0.153014347f, 5.20216809e-38f, 4.92398204e-39f, -3.00677873e-39f,
    0.212014169f, 0.116612092f, 0.107249632f, -0.0171026215f, 0.543436408f, -0.250080734f, 6.45938757e-39f, -3.09255921e-39f,
    -3.11438584e-41f, 0.169528782f, 0.329820961f, 0.157942608f, -0.155767336f, -0.0184658449f, -0.0155469654f, 0.0933846384f,
    0.389245123f, 0.280100077f, -4.34987706e-39f, -8.0118539e-39f, -7.86423272e-39f, -0.400416523f, 0.17062369f, -0.189234838f,
    -0.461874247f, 0.159120172f, -0.064568758f, -0.46783492f, -0.132016659f, -0.447420716f, -0.245152161f, 0.119756937f,
    0.0117105078f, -0.00246521691f, 0.306997567f, 0.152904943f, 0.0291309282f, -0.354171127f, 0.35329926f, -0.0741261318f,
    -0.0291356388f, 0.0603728779f, 0.392973602f, 0.31395337f, 0.129068911f, 0.160477176f, 0.0813220143f, 0.445599258f,
    -0.0478322655f, 0.0790706277f, -0.227007717f, 0.175407082f, 0.238411382f, 0.344526291f, 0.182653949f, -0.122488372f,
    0.182442263f, -0.48365581f, -0.1276941f, -0.286834687f, -0.493136585f, -0.18455857f, -0.162372738f, 0.320999533f,
    0.0919369087f, 0.0321013443f, 0.274298698f, 0.349044919f, -0.00829968043f, 0.302853882f, 0.302494019f, -0.104323521f,
    0.117366053f, -0.230018929f, -0.265030593f, 0.00494013866f, 0.202353418f, 0.19508718f, 0.349326491f, 0.254099518f,
    0.131147683f, -1.82322102e-39f, -4.68696501e-40f, 5.29970659e-39f, 0.355568081f, 0.0616122931f, 0.00853971299f, -4.95251948e-39f,
    3.17190634e-39f, 1.09959834e-38f, 0.187280074f, 0.121759839f, -0.181407824f, 3.40386467e-39f, -3.397308e-41f, -3.16689529e-39f,
    0.309618384f, -0.0436901115f, 0.258784652f, -0.124895878f, 0.0847218186f, 0.169462547f, 2.41787744e-39f, -3.715889e-39f,
    -5.44646878e-39f, -0.105836645f, -0.158575654f, -0.156622604f, 0.0426977798f, 0.00220727106f, 0.137519971f, 0.148636445f,
    0.06239729f, 0.0876931325f, 4.25975255e-39f, -4.45061641e-39f, 1.27347762e-39f, 0.0538437106f, -0.216515154f, 0.194801688f,
    -0.831900954f, 0.254913658f, -0.157838807f, 0.329696387f, 0.281220496f, 0.50278002f, 0.00779543677f, 0.104487367f,
    0.158072963f, 0.0373034291f, 0.0339728631f, 0.147513732f, -0.448309481f, 0.0160231907f, 0.0734459311f, -0.153408974f,
    0.0544123799f, 0.0324103609f, 0.614926815f, -0.112151444f, 0.0914860219f, -0.227403566f, -0.110220246f, -0.145815536f,
    0.307889938f, 0.15580447f, -0.0459118783f, -0.160398528f, -0.292034179f, -0.040123947f, -0.364944518f, -0.0329691097f,
    0.135805652f, -0.160935059f, 0.443116367f, 0.269506037f, -0.129825339f, 0.0667813346f, 0.0457143337f, -0.297800899f,
    -0.417075694f, -0.280981451f, -0.115646556f, 0.0211251117f, -0.338904232f, 0.160569802f, -0.105284378f, 0.266654968f,
    0.118459746f, 0.0235048328f, -0.161385894f, -0.015337036f, 0.0723944753f, -0.0326017737f, 0.0154984724f, 0.182055622f,
    0.0305437651f, 1.63145557e-38f, 1.20635094e-38f, -1.3543942e-39f, -0.104526132f, 0.0668386444f, 0.147496939f, 2.56471811e-39f,
    -7.2390406e-39f, -4.18215845e-39f, 0.0402427092f, -0.0872406662f, 0.269957542f, 8.92414124e-40f, 9.72730947e-40f, -3.0051294e-39f,
    -0.10171137f, 0.0287844259f, 0.0543547608f, 0.0325487331f, 0.0620036758f, 0.143778265f, 2.44644852e-39f, 1.80514427e-39f,
    2.80956418e-39f, -0.000720857934f, -0.02674249f, 0.127838224f, -0.0172331408f, -0.0497311242f, 0.027513897f, 0.215253979f,
    -0.0807676837f, 0.0259132255f, -4.63142034e-39f, -5.14408819e-39f, -3.7552781e-39f, -0.0625856891f, 0.146107271f, -0.183514878f,
    -0.148142278f, -0.215125054f, 0.308152199f, -0.124887839f, 0.249929175f, -0.153162107f, -0.108094625f, -0.0102740536f,
    0.189489096f, -0.0404495411f, -0.0441396162f, 0.0604028888f, 0.148842841f, -0.15476869f, -0.256366968f, 0.0882382467f,
    -0.00571651477f, 0.122233346f, 0.16721113f, 0.291972607f, -0.0806337446f, -0.0261650886f, -0.241813779f, 0.0528458916f,
    0.0177859925f, 0.077672489f, 0.0957582369f, -0.0134630669f, -0.0487359278f, 0.0708047748f, -0.0954272822f, -0.20583865f,
    -0.0422259867f, 0.0436751992f, 0.027120756f, -0.102586076f, 0.0170790069f, 0.0600441843f, 0.181744412f, -0.109071769f,
    0.170633823f, -0.0486342348f, -0.123807423f, -0.178739727f, 0.112295538f, 0.0541766509f, 0.0785633698f, 0.00872126874f,
    -0.0102404067f, -0.113356501f, -0.111369386f, 0.0932250395f, 0.0672562346f, 0.0666232929f, 0.0186558776f, -0.155698016f,
    -0.0539976321f, 2.99407596e-39f, -3.50372821e-39f, -2.12414426e-39f, -0.0513894036f, 0.152145758f, 0.10823708f, -1.94966579e-39f,
    5.25290742e-39f, -1.28117299e-38f, 0.244168848f, -0.3215051f, 0.132711768f, 4.75845085e-39f, -7.63690847e-40f, 3.14031546e-39f,
    0.110266104f, 0.0303328913f, -0.0126484893f, 0.0263438094f, -0.127306312f, 0.227314487f, 3.65723205e-39f, 5.80628579e-39f,
    -2.03944978e-39f, 0.13903451f, 0.0889896303f, 0.0768113211f, 0.0440492146f, -0.0282811411f, -0.0928886235f, -0.338898689f,
    -0.359198958f, -0.187967554f, 5.58088413e-39f, 6.64281053e-39f, -1.59714394e-39f, 0.142796159f, -0.0396526083f, 0.0336711332f,
    0.211705357f, 0.0285470951f, 0.357773572f, 0.217567921f, -0.0020319852f, 0.0239300188f, -0.12294925f, 0.0800630078f,
    0.0110418024f, -0.171120733f, -0.28260681f, -0.138570204f, 0.206975043f, -0.38927862f, -0.104015231f, 0.0425701551f,
